timestamp ba_x ba_y ba_z bg_x bg_y bg_z
1741766479.451982 0.00002482 0.00003170 -0.00276696 0.00059332 0.00014414 0.00023424
1741766479.585330 0.00004194 0.00003018 -0.00374492 0.00067193 0.00019433 0.00027751
1741766479.718808 0.00006654 0.00002708 -0.00470456 0.00069964 0.00025491 0.00030709
1741766479.852200 0.00047203 -0.00020385 -0.00622409 0.00064765 0.00037314 0.00032761
1741766479.985833 0.00053240 -0.00024839 -0.00598558 0.00051821 0.00025462 0.00030997
1741766480.119049 0.00059532 -0.00030444 -0.00553256 0.00046159 0.00015352 0.00028427
1741766480.252511 0.00066411 -0.00036487 -0.00532215 0.00043725 0.00003182 0.00028770
1741766480.385911 0.00072981 -0.00042288 -0.00524518 0.00049876 0.00000411 0.00027588
1741766480.519346 0.00086569 -0.00055307 -0.00499598 0.00043502 -0.00006145 0.00025994
1741766480.652787 0.00100416 -0.00069784 -0.00470463 0.00040102 -0.00007019 0.00024732
1741766480.786182 0.00121859 -0.00092136 -0.00456557 0.00043657 0.00006043 0.00024482
1741766480.919755 0.00135367 -0.00109675 -0.00423405 0.00034559 -0.00003863 0.00021315
1741766481.053120 0.00162515 -0.00139181 -0.00444669 0.00032500 -0.00011762 0.00021588
1741766481.186797 0.00175099 -0.00157535 -0.00384739 0.00032042 -0.00009903 0.00021263
1741766481.319966 0.00181514 -0.00166404 -0.00386101 0.00030511 -0.00008243 0.00020335
1741766481.453328 0.00194352 -0.00184311 -0.00387109 0.00031635 -0.00007275 0.00018432
1741766481.586891 0.00207179 -0.00202225 -0.00387413 0.00027173 -0.00006838 0.00017953
1741766481.720196 0.00220483 -0.00219283 -0.00400421 0.00031504 -0.00009645 0.00018419
1741766481.853758 0.00226995 -0.00228218 -0.00395103 0.00032539 -0.00008309 0.00018340
1741766481.987201 0.00246838 -0.00256088 -0.00386860 0.00033286 -0.00006778 0.00017952
1741766482.120700 0.00259953 -0.00274014 -0.00393808 0.00033297 -0.00006062 0.00017887
1741766482.253936 0.00280036 -0.00299786 -0.00404940 0.00031778 -0.00002061 0.00016784
1741766482.388146 0.00293477 -0.00316681 -0.00414224 0.00033423 -0.00004538 0.00016102
1741766482.520983 0.00306686 -0.00333327 -0.00417116 0.00032687 -0.00004677 0.00015570
1741766482.654494 0.00319606 -0.00351200 -0.00402586 0.00031949 -0.00002297 0.00014970
1741766482.787905 0.00339212 -0.00376905 -0.00408661 0.00031139 -0.00002067 0.00015002
1741766482.921220 0.00352130 -0.00395460 -0.00396836 0.00030355 -0.00002723 0.00013683
1741766483.054598 0.00371539 -0.00424183 -0.00389083 0.00030013 -0.00002438 0.00011815
1741766483.188261 0.00384444 -0.00444522 -0.00377349 0.00028803 -0.00001489 0.00013358
1741766483.321427 0.00397714 -0.00465666 -0.00371849 0.00028506 0.00000956 0.00012152
1741766483.454946 0.00444047 -0.00548283 -0.00357023 0.00027233 0.00001445 0.00010573
1741766483.588295 0.00477116 -0.00602613 -0.00366719 0.00028426 0.00000252 0.00011511
1741766483.721669 0.00497036 -0.00635286 -0.00367033 0.00027783 0.00000288 0.00010498
1741766483.855182 0.00510473 -0.00657320 -0.00367103 0.00027247 0.00000645 0.00009712
1741766483.988557 0.00530750 -0.00692436 -0.00356866 0.00026283 0.00001836 0.00010093
1741766484.122100 0.00544353 -0.00717086 -0.00349902 0.00026666 0.00001756 0.00010631
1741766484.255505 0.00564857 -0.00755136 -0.00346190 0.00025824 0.00002459 0.00009801
1741766484.388850 0.00578338 -0.00780864 -0.00342557 0.00025678 0.00003184 0.00010077
1741766484.522383 0.00598591 -0.00818648 -0.00346419 0.00025340 0.00003487 0.00010334
1741766484.655720 0.00612047 -0.00842436 -0.00355452 0.00025591 0.00004077 0.00010301
1741766484.789160 0.00631984 -0.00877270 -0.00358631 0.00024365 0.00005069 0.00010133
1741766484.922843 0.00645432 -0.00900907 -0.00358587 0.00024202 0.00004946 0.00010163
1741766485.056205 0.00665453 -0.00938092 -0.00352018 0.00024121 0.00005653 0.00009633
1741766485.189491 0.00678768 -0.00963839 -0.00348285 0.00023991 0.00005805 0.00009384
1741766485.289661 0.00691463 -0.00989433 -0.00344370 0.00023477 0.00006446 0.00009231
1741766485.423079 0.00711444 -0.01031414 -0.00339340 0.00023058 0.00006696 0.00008550
1741766485.556463 0.00731750 -0.01073595 -0.00340873 0.00023207 0.00007008 0.00008694
1741766485.689817 0.00744987 -0.01101266 -0.00342284 0.00022977 0.00007419 0.00008212
1741766485.823265 0.00758053 -0.01129168 -0.00341113 0.00021916 0.00008001 0.00007871
1741766485.956634 0.00777862 -0.01171670 -0.00339879 0.00022063 0.00008297 0.00007957
1741766486.090157 0.00790823 -0.01200446 -0.00338205 0.00021980 0.00008558 0.00007648
1741766486.223581 0.00810159 -0.01243992 -0.00337406 0.00021750 0.00008689 0.00007512
1741766486.356976 0.00822887 -0.01274489 -0.00333350 0.00021496 0.00008988 0.00007803
1741766486.490488 0.00835345 -0.01305742 -0.00330312 0.00021045 0.00009793 0.00007699
1741766486.623896 0.00854070 -0.01352586 -0.00330829 0.00020921 0.00010160 0.00007540
1741766486.757205 0.00866667 -0.01383776 -0.00332689 0.00020654 0.00010269 0.00006935
1741766486.890642 0.00879162 -0.01415322 -0.00332171 0.00020394 0.00010666 0.00006708
1741766487.024131 0.00891729 -0.01446439 -0.00333777 0.00020266 0.00010865 0.00006271
1741766487.157498 0.00910102 -0.01494333 -0.00331069 0.00020268 0.00010931 0.00005839
1741766487.290960 0.00922321 -0.01525787 -0.00332725 0.00020177 0.00011098 0.00005658
1741766487.424373 0.00940179 -0.01575823 -0.00328300 0.00020085 0.00011426 0.00005098
1741766487.557913 0.00951376 -0.01611489 -0.00322021 0.00019346 0.00011917 0.00004635
1741766487.691247 0.00968846 -0.01663811 -0.00324853 0.00019108 0.00011856 0.00004580
1741766487.824648 0.00980842 -0.01696683 -0.00330423 0.00019073 0.00011845 0.00004445
1741766487.958139 0.00992438 -0.01730514 -0.00327736 0.00018661 0.00012075 0.00004644
1741766488.091686 0.01010026 -0.01780089 -0.00329677 0.00018493 0.00012513 0.00004281
1741766488.224985 0.01021715 -0.01813236 -0.00330046 0.00018425 0.00012501 0.00004524
1741766488.358421 0.01038093 -0.01867674 -0.00323674 0.00017915 0.00012572 0.00004301
1741766488.491805 0.01048750 -0.01905464 -0.00321511 0.00018030 0.00012541 0.00004352
1741766488.625299 0.01059096 -0.01943612 -0.00320801 0.00018093 0.00012187 0.00004336
1741766488.758795 0.01074520 -0.02000508 -0.00321216 0.00018329 0.00012444 0.00004253
1741766488.892220 0.01083748 -0.02041470 -0.00315906 0.00017779 0.00012290 0.00004316
1741766489.025572 0.01092726 -0.02082819 -0.00314870 0.00017624 0.00011876 0.00004191
1741766489.159019 0.01101775 -0.02123841 -0.00315922 0.00017513 0.00012062 0.00004078
1741766489.292450 0.01110736 -0.02164880 -0.00316324 0.00017485 0.00012069 0.00004119
1741766489.426053 0.01110736 -0.02164880 -0.00316324 0.00014050 -0.00012419 -0.00009498
1741766489.559504 0.01110736 -0.02164880 -0.00316324 0.00035756 0.00013379 0.00007240
1741766489.692723 0.01110736 -0.02164880 -0.00316324 -0.00014069 0.00024580 -0.00008331
1741766489.826285 0.01110736 -0.02164880 -0.00316324 -0.00007595 0.00008057 0.00004739
1741766489.959632 0.01110736 -0.02164880 -0.00316324 0.00018159 0.00021829 -0.00004896
1741766490.093047 0.01110736 -0.02164880 -0.00316324 -0.00030870 0.00047149 -0.00032924
1741766490.226574 0.01110736 -0.02164880 -0.00316324 -0.00007099 -0.00001807 -0.00028018
1741766490.359951 0.01110736 -0.02164880 -0.00316324 -0.00058558 0.00015796 -0.00040851
1741766490.493384 0.01110736 -0.02164880 -0.00316324 -0.00011116 0.00016696 0.00011101
1741766490.690336 0.01110736 -0.02164880 -0.00316324 -0.00005857 -0.00016470 -0.00009102
1741766490.760367 0.01110736 -0.02164880 -0.00316324 -0.00022598 0.00008688 -0.00034727
1741766490.893660 0.01110736 -0.02164880 -0.00316324 -0.00014699 -0.00002835 0.00019368
1741766491.027066 0.01110736 -0.02164880 -0.00316324 0.00032045 0.00011844 -0.00004709
1741766491.160670 0.01110736 -0.02164880 -0.00316324 -0.00043288 -0.00016369 -0.00003308
1741766491.293893 0.01110736 -0.02164880 -0.00316324 0.00032600 0.00023322 -0.00023937
1741766491.427340 0.01110736 -0.02164880 -0.00316324 0.00036656 -0.00022055 0.00032007
1741766491.560912 0.01110736 -0.02164880 -0.00316324 0.00000238 0.00006377 -0.00008768
1741766491.694334 0.01110736 -0.02164880 -0.00316324 0.00025632 0.00019518 0.00038644
1741766491.827684 0.01110736 -0.02164881 -0.00316324 -0.00092264 -0.00016321 -0.00038624
1741766491.961072 0.01110736 -0.02164880 -0.00316324 -0.00022590 0.00029303 -0.00002596
1741766492.094560 0.01110736 -0.02164880 -0.00316324 -0.00007187 0.00001388 -0.00012817
1741766492.228029 0.01110736 -0.02164880 -0.00316324 -0.00041129 0.00003658 0.00000162
1741766492.361443 0.01110736 -0.02164880 -0.00316324 -0.00009079 0.00030061 0.00010972
1741766492.494771 0.01110736 -0.02164880 -0.00316324 -0.00028227 0.00004364 0.00010747
1741766492.628275 0.01110736 -0.02164880 -0.00316324 -0.00082639 -0.00007480 -0.00002529
1741766492.761711 0.01110736 -0.02164880 -0.00316324 -0.00020419 -0.00005013 -0.00035871
1741766492.895205 0.01110737 -0.02164881 -0.00316324 -0.00027082 -0.00035951 -0.00011331
1741766493.028610 0.01110736 -0.02164880 -0.00316324 0.00001284 0.00023423 0.00002582
1741766493.161974 0.01110737 -0.02164881 -0.00316324 -0.00010564 -0.00004172 -0.00021346
1741766493.295555 0.01110736 -0.02164880 -0.00316324 -0.00003714 0.00005685 0.00023474
1741766493.428916 0.01110736 -0.02164880 -0.00316324 -0.00023300 0.00011725 -0.00036989
1741766493.562282 0.01110736 -0.02164880 -0.00316324 -0.00009897 -0.00008855 -0.00034333
1741766493.695800 0.01110736 -0.02164880 -0.00316324 -0.00011734 0.00015902 -0.00009267
1741766493.829102 0.01110737 -0.02164880 -0.00316324 -0.00002908 0.00007321 -0.00008194
1741766493.962615 0.01110737 -0.02164880 -0.00316324 -0.00023152 -0.00005403 -0.00008262
1741766494.096090 0.01110737 -0.02164880 -0.00316324 -0.00006892 0.00018456 -0.00016533
1741766494.229465 0.01110737 -0.02164880 -0.00316324 0.00013845 0.00008474 -0.00011801
1741766494.362952 0.01110737 -0.02164880 -0.00316324 0.00000239 0.00025081 0.00023656
1741766494.496344 0.01110737 -0.02164880 -0.00316324 -0.00053562 0.00034263 -0.00030527
1741766494.629764 0.01110736 -0.02164880 -0.00316324 -0.00016810 0.00051776 0.00001117
1741766494.763147 0.01110736 -0.02164880 -0.00316324 0.00033844 0.00007890 -0.00024214
1741766494.896678 0.01110736 -0.02164880 -0.00316324 -0.00031915 0.00022565 0.00002354
1741766495.030023 0.01110736 -0.02164880 -0.00316324 -0.00045655 0.00012842 -0.00022343
1741766495.163475 0.01110736 -0.02164880 -0.00316324 -0.00026345 0.00011248 0.00006920
1741766495.296979 0.01110736 -0.02164880 -0.00316324 -0.00043688 0.00015082 -0.00000052
1741766495.430370 0.01110736 -0.02164880 -0.00316324 0.00009898 0.00021876 0.00016534
1741766495.563808 0.01110736 -0.02164880 -0.00316324 0.00020938 -0.00004009 -0.00007898
1741766495.697335 0.01110736 -0.02164880 -0.00316324 -0.00011389 0.00028917 -0.00013872
1741766495.830652 0.01110736 -0.02164880 -0.00316324 0.00019573 0.00014890 -0.00013231
1741766495.964068 0.01110736 -0.02164880 -0.00316324 -0.00021717 -0.00006745 0.00014480
1741766496.097523 0.01110736 -0.02164880 -0.00316324 -0.00064434 -0.00024126 -0.00003972
1741766496.231039 0.01110736 -0.02164880 -0.00316324 0.00007759 0.00014463 -0.00005202
1741766496.364325 0.01110736 -0.02164880 -0.00316324 -0.00035300 -0.00021269 -0.00009574
1741766496.497907 0.01110736 -0.02164880 -0.00316324 -0.00017445 0.00043405 0.00000065
1741766496.631177 0.01110737 -0.02164880 -0.00316324 -0.00016103 -0.00014839 -0.00003900
1741766496.764769 0.01110737 -0.02164880 -0.00316324 -0.00031637 -0.00017323 0.00008935
1741766496.898203 0.01110737 -0.02164880 -0.00316324 0.00010498 -0.00005298 -0.00016566
1741766497.031591 0.01110737 -0.02164880 -0.00316324 -0.00011350 0.00011666 0.00028228
1741766497.165022 0.01110737 -0.02164880 -0.00316324 -0.00003062 0.00023419 -0.00001256
1741766497.298429 0.01110737 -0.02164880 -0.00316324 -0.00024252 0.00017241 -0.00023162
1741766497.431885 0.01110737 -0.02164881 -0.00316324 -0.00003157 0.00031875 -0.00009332
1741766497.565326 0.01110737 -0.02164881 -0.00316324 -0.00045311 -0.00022107 -0.00025654
1741766497.698758 0.01110737 -0.02164881 -0.00316324 0.00015761 0.00047402 0.00011434
1741766497.832164 0.01110737 -0.02164881 -0.00316324 -0.00043929 -0.00012876 0.00008602
1741766497.965566 0.01110737 -0.02164881 -0.00316324 -0.00017830 0.00025465 -0.00024969
1741766498.099208 0.01110737 -0.02164881 -0.00316324 0.00010862 -0.00014468 0.00036599
1741766498.232419 0.01110737 -0.02164881 -0.00316324 -0.00036342 0.00035086 0.00000986
1741766498.365934 0.01110737 -0.02164881 -0.00316324 0.00005539 0.00025954 -0.00043979
1741766498.499408 0.01110737 -0.02164881 -0.00316324 -0.00013736 -0.00025349 0.00034537
1741766498.632700 0.01110737 -0.02164881 -0.00316324 0.00021846 -0.00031072 -0.00008995
1741766498.766357 0.01110737 -0.02164881 -0.00316324 0.00027386 0.00048133 0.00011564
1741766498.899601 0.01110737 -0.02164881 -0.00316324 -0.00046419 -0.00024741 -0.00008917
1741766499.033062 0.01110737 -0.02164881 -0.00316324 -0.00043524 -0.00002458 -0.00003311
1741766499.166991 0.01110737 -0.02164881 -0.00316324 0.00011040 0.00021888 0.00020640
1741766499.299962 0.01110737 -0.02164881 -0.00316324 -0.00038735 -0.00025266 0.00013605
1741766499.433353 0.01110737 -0.02164881 -0.00316324 -0.00003312 0.00001538 -0.00021467
1741766499.566940 0.01110737 -0.02164881 -0.00316324 0.00025339 0.00032026 0.00026176
1741766499.700219 0.01110737 -0.02164881 -0.00316324 -0.00015244 -0.00021753 0.00001713
1741766499.833612 0.01110737 -0.02164881 -0.00316324 0.00063502 0.00022539 -0.00008528
1741766499.967092 0.01110737 -0.02164881 -0.00316324 -0.00033133 -0.00006612 0.00011932
1741766500.100769 0.01110737 -0.02164881 -0.00316324 0.00064105 0.00016061 -0.00024661
1741766500.233939 0.01110744 -0.02164887 -0.00316324 0.00041585 0.00009492 0.00003763
1741766500.367675 0.01110738 -0.02164881 -0.00316321 -0.00146843 0.00224642 0.01617528
1741766500.500956 0.01110738 -0.02164881 -0.00316321 0.00069130 -0.00027770 0.00075429
1741766500.634394 0.01110738 -0.02164881 -0.00316321 -0.00007808 0.00025107 -0.00187480
1741766500.767668 0.01110738 -0.02164881 -0.00316321 -0.00037623 0.00010992 -0.00004787
1741766500.901119 0.01110737 -0.02164880 -0.00316321 0.00073504 0.00016165 0.00157679
1741766501.034615 0.01110737 -0.02164881 -0.00316321 -0.00036959 -0.00011691 -0.00127910
1741766501.167996 0.01110738 -0.02164881 -0.00316321 0.00039062 0.00040038 -0.00104074
1741766501.301457 0.01110738 -0.02164881 -0.00316321 0.00059358 -0.00033868 0.00100207
1741766501.434899 0.01110738 -0.02164881 -0.00316321 -0.00064987 0.00139084 -0.00009273
1741766501.568426 0.01110738 -0.02164881 -0.00316321 0.00107022 0.00076180 -0.00123551
1741766501.701760 0.01110738 -0.02164881 -0.00316321 -0.00166833 -0.00006606 -0.00065374
1741766501.835260 0.01110737 -0.02164880 -0.00316321 0.00272702 0.00247678 -0.00082884
1741766501.968641 0.01110737 -0.02164880 -0.00316321 0.00285939 -0.00097243 0.00215470
1741766502.102024 0.01110737 -0.02164881 -0.00316321 0.00351187 0.00509368 -0.00537302
1741766502.235445 0.01110737 -0.02164881 -0.00316321 -0.01108330 0.00477010 -0.00416233
1741766502.368943 0.01110737 -0.02164881 -0.00316321 0.00651238 0.00847272 -0.00355248
1741766502.502444 0.01110737 -0.02164881 -0.00316321 0.00218999 0.01249070 -0.00710696
1741766502.635884 0.01110736 -0.02164882 -0.00316321 -0.04174707 0.03083831 -0.01473678
1741766502.769232 0.01110739 -0.02164882 -0.00316321 -0.03849939 -0.06396261 0.01606614
1741766502.902646 0.05849614 0.15328176 0.02020831 -0.00035754 -0.03384090 0.00659101
1741766503.036025 3.18998051 0.90939832 0.49536357 -0.00953023 -0.01859879 0.00323078
1741766503.169613 1.74420685 0.54885793 0.26228277 0.00087892 -0.02890590 0.00417519
1741766503.302994 1.45865594 0.43171254 0.18024875 -0.00126807 -0.02168385 0.00447825
1741766503.436438 1.31571004 0.35992323 0.12579277 0.00453825 -0.01869582 0.00615029
1741766503.569823 1.21583267 0.25938560 0.09478277 0.00194995 -0.01965004 0.00505643
1741766503.703292 1.17182209 0.15093573 0.09033112 -0.00107695 -0.01461206 0.00452657
1741766503.836695 1.16383016 -0.02433925 0.08312186 -0.00913348 -0.00904073 0.00119253
1741766503.970178 1.15760314 -0.11081343 0.10531140 -0.00990515 -0.02314029 0.00122169
1741766504.103562 1.17708096 -0.12570970 0.09875610 -0.00394541 -0.02234120 0.00190873
1741766504.237068 1.24674370 -0.17096486 0.10746418 -0.00288487 -0.01165787 0.00203778
1741766504.370437 1.30402829 -0.31691482 0.12300104 -0.00702507 -0.00445446 0.00075001
1741766504.503958 1.09256461 -0.42336290 0.09905165 -0.00843323 -0.01752513 0.00002691
1741766504.637434 1.13943202 -0.19332573 0.09784296 -0.00133764 -0.01430670 0.00295508
1741766504.770780 1.03439859 -0.54391981 0.08371636 0.00115335 -0.00219307 0.00151896
1741766504.904233 1.04338664 -0.67730957 0.09552254 0.00049632 -0.00218132 0.00134352
1741766505.037620 1.05072238 -0.68233046 0.10928004 -0.00025032 -0.00126308 0.00141882
1741766505.171056 1.03050488 -0.72262877 0.11230619 0.00012949 -0.00185374 0.00141788
1741766505.304438 1.03836913 -0.80514267 0.12419557 0.00043997 -0.00170372 0.00140657
1741766505.437869 1.05065450 -0.85567627 0.12915069 0.00088688 -0.00147129 0.00169629
1741766505.571318 1.06641808 -0.87515404 0.13028201 0.00128774 -0.00218235 0.00193042
1741766505.704847 1.05668302 -0.88427544 0.12473910 0.00156599 -0.00139794 0.00175185
1741766505.838273 1.03090316 -0.87121126 0.11601993 0.00162981 -0.00148587 0.00148984
1741766505.971649 0.99698176 -0.85887311 0.10709719 0.00188835 -0.00105968 0.00165035
1741766506.105028 1.00131631 -0.83723456 0.10681798 0.00210630 -0.00082937 0.00138242
1741766506.238540 1.00324556 -0.82520519 0.11018618 0.00147445 -0.00079238 0.00123286
1741766506.371950 0.99664766 -0.81350299 0.11036523 0.01172764 -0.00126664 0.00085661
1741766506.505406 1.00254008 -0.91309634 0.11975192 0.00865949 0.00011868 -0.00110777
1741766506.638824 0.95161477 -0.85480325 0.11414450 -0.00417834 0.00073848 -0.00205707
1741766506.772260 0.87661947 -0.79860190 0.10400364 -0.00729377 -0.00150685 0.00081331
1741766506.906310 0.83542840 -0.68860666 0.09468166 0.00073625 -0.00086388 0.00091042
1741766507.039291 0.82520205 -0.64782719 0.09226000 0.00126045 -0.00144680 0.00064159
1741766507.172564 0.81865802 -0.62121044 0.09013622 0.00106298 -0.00144913 0.00051813
1741766507.305961 0.80780800 -0.57774638 0.08436256 0.00047707 -0.00155442 0.00045467
1741766507.439553 0.80662280 -0.56294202 0.08227973 -0.00023675 -0.00128288 0.00042841
1741766507.572839 0.80029455 -0.54680715 0.07886055 0.00030687 -0.00173697 0.00040921
1741766507.706227 0.76270284 -0.51439078 0.06736598 0.00118132 -0.00081868 0.00040923
1741766507.839771 0.73236188 -0.47767282 0.05766584 0.00096031 -0.00120468 0.00026860
1741766507.973170 0.74288341 -0.47812480 0.05898509 0.00084298 -0.00177419 0.00010838
1741766508.106838 0.76952282 -0.50063599 0.06488013 0.00108257 -0.00181695 0.00010327
1741766508.240010 0.77057038 -0.50760129 0.06617166 0.00115535 -0.00159041 0.00004029
1741766508.373517 0.78017047 -0.51994508 0.06969752 0.00110582 -0.00144382 -0.00014720
1741766508.506956 0.77210767 -0.51144225 0.06602980 0.00122335 -0.00150722 -0.00023430
1741766508.640308 0.76455173 -0.50252591 0.06369017 0.00131863 -0.00147209 -0.00033188
1741766508.773765 0.74867311 -0.47506386 0.05803183 0.00076678 -0.00133671 -0.00042762
1741766508.907225 0.74315309 -0.47667152 0.05727332 0.00065867 -0.00144749 -0.00043005
1741766509.040696 0.73845398 -0.47841528 0.05622223 0.00078200 -0.00154561 -0.00038910
1741766509.174076 0.73939484 -0.47898254 0.05624946 0.00080412 -0.00140093 -0.00035577
1741766509.307496 0.73996551 -0.47858240 0.05625236 0.00091236 -0.00140889 -0.00031168
1741766509.440904 0.74360187 -0.48221167 0.05747878 0.00067162 -0.00140211 -0.00037521
1741766509.574336 0.75891648 -0.51308294 0.06326138 0.00080234 -0.00138763 -0.00037602
1741766509.707730 0.75589682 -0.50018090 0.06088855 0.00070994 -0.00141758 -0.00056570
1741766509.841352 0.75492951 -0.49933243 0.06063752 0.00065797 -0.00133553 -0.00047791
1741766509.974706 0.76133861 -0.49393364 0.06133030 0.00062329 -0.00130769 -0.00042548
1741766510.108254 0.75682097 -0.49757735 0.05997300 0.00052196 -0.00126569 -0.00054652
1741766510.241510 0.75386779 -0.49757753 0.05937795 0.00058052 -0.00126932 -0.00056497
1741766510.374946 0.75148878 -0.49755965 0.05887391 0.00055943 -0.00122652 -0.00069173
1741766510.508432 0.74846451 -0.49532186 0.05796972 0.00059157 -0.00131185 -0.00077492
1741766510.641783 0.75020571 -0.50590377 0.05862188 0.00051108 -0.00134911 -0.00074833
1741766510.775232 0.75033980 -0.50724087 0.05864530 0.00061800 -0.00126539 -0.00065065
1741766510.908706 0.74910274 -0.50670165 0.05826764 0.00048796 -0.00129891 -0.00065185
1741766511.042077 0.74682287 -0.50619703 0.05753668 0.00035769 -0.00133208 -0.00046144
1741766511.175493 0.74651469 -0.50527992 0.05716515 0.00051828 -0.00126141 -0.00042326
1741766511.308983 0.74720176 -0.50310625 0.05686159 0.00052314 -0.00120458 -0.00042266
1741766511.442384 0.74660720 -0.50396590 0.05669287 0.00065323 -0.00071249 -0.00197139
1741766511.575813 0.75004350 -0.42120887 0.05036918 0.00058702 0.00217872 -0.00233125
1741766511.709206 0.72196259 -0.54351019 0.05713296 -0.00001486 -0.00097292 -0.00202594
1741766511.842651 0.71581823 -0.56392104 0.05928349 -0.00002000 -0.00181959 -0.00174594
1741766511.976173 0.67345413 -0.54729582 0.05421175 -0.00041759 -0.00255761 -0.00175726
1741766512.109723 0.66016383 -0.51187059 0.05127472 -0.00014510 -0.00221933 -0.00123817
1741766512.243040 0.59370678 -0.43206379 0.04124080 -0.00035625 -0.00164730 -0.00110774
1741766512.376372 0.54163338 -0.34731436 0.03104113 -0.00068281 -0.00109999 -0.00095640
1741766512.509979 0.52320564 -0.29803010 0.02713829 -0.00052681 -0.00074189 -0.00075558
1741766512.643292 0.51981387 -0.24246290 0.02349125 -0.00043916 -0.00098242 -0.00046984
1741766512.776736 0.51460645 -0.21507584 0.02106232 -0.00031986 -0.00101903 -0.00009675
1741766512.910115 0.50423725 -0.22015765 0.02056235 -0.00039084 -0.00087690 0.00008044
1741766513.043608 0.49957971 -0.20981871 0.01916536 -0.00024639 -0.00095455 0.00002406
1741766513.177061 0.47642225 -0.20556511 0.01717887 -0.00020343 -0.00095086 -0.00018386
1741766513.310444 0.46461173 -0.20948932 0.01716455 -0.00003710 -0.00078141 -0.00027030
1741766513.443960 0.46021443 -0.20822926 0.01742844 0.00009559 -0.00063060 -0.00045712
1741766513.577315 0.45159273 -0.20155780 0.01639287 0.00004043 -0.00075516 -0.00070202
1741766513.710813 0.43853557 -0.17558917 0.01251464 -0.00004563 -0.00052470 -0.00093414
1741766513.844480 0.47188740 -0.10010492 0.00561141 -0.00025806 -0.00102762 -0.00039480
1741766513.977628 0.41733518 -0.13160750 0.00920580 -0.00003008 -0.00040077 -0.00095125
1741766514.111158 0.40972944 -0.11974765 0.00699064 0.00012124 -0.00040155 -0.00080470
1741766514.244498 0.41031004 -0.11995633 0.00749785 0.00014182 -0.00040265 -0.00066291
1741766514.377916 0.47753093 -0.13921024 0.00743315 -0.00003210 -0.00117567 0.00086760
1741766514.511345 0.40278239 -0.10866021 0.00467934 0.00003871 -0.00068233 -0.00038210
1741766514.644800 0.39938260 -0.09655875 0.00258177 0.00016861 -0.00084905 -0.00039405
1741766514.778237 0.39697886 -0.09959947 0.00344528 0.00037798 -0.00087573 -0.00046228
1741766514.911681 0.39069659 -0.10141331 0.00347164 0.00047516 -0.00092720 -0.00070970
1741766515.045152 0.38692750 -0.10038808 0.00315238 0.00046500 -0.00105488 -0.00081300
1741766515.178590 0.38691218 -0.10243541 0.00417203 0.00046498 -0.00077119 -0.00090367
1741766515.312029 0.22068920 0.07643208 -0.04126001 0.00045654 -0.00229742 0.00117337
1741766515.445459 0.37956475 -0.09947560 0.00333905 0.00080087 -0.00040424 -0.00068180
1741766515.578827 0.37917135 -0.11080602 0.00379244 0.00085611 -0.00055132 -0.00065902
1741766515.712439 0.38355695 -0.11333809 0.00402551 0.00097744 -0.00051498 -0.00086091
1741766515.845738 0.38789730 -0.11136033 0.00435391 0.00099862 -0.00073191 -0.00108414
1741766515.979143 0.39033928 -0.10324878 0.00409521 0.00076891 -0.00049440 -0.00117476
1741766516.112547 0.38833401 -0.09390715 0.00272527 0.00081097 -0.00071726 -0.00118489
1741766516.245985 0.38613527 -0.09203676 0.00268485 0.00074770 -0.00075881 -0.00120793
1741766516.379423 0.38559725 -0.09273583 0.00387372 0.00066357 -0.00048165 -0.00120116
1741766516.512850 0.38036706 -0.08299663 0.00215243 0.00083117 -0.00055226 -0.00107220
1741766516.646297 0.37492899 -0.07301584 0.00017498 0.00097235 -0.00060141 -0.00106656
1741766516.779773 0.38177275 -0.07813358 0.00181329 0.00101197 -0.00075930 -0.00104661
1741766516.913147 0.38815175 -0.08064366 0.00256822 0.00087143 -0.00069031 -0.00109738
1741766517.046651 0.38775119 -0.08634437 0.00416271 0.00111307 -0.00049071 -0.00107434
1741766517.180006 0.38460298 -0.08918371 0.00487038 0.00099697 -0.00053020 -0.00109116
1741766517.313431 0.39211500 -0.10022760 0.00633941 0.00087272 -0.00040538 -0.00128930
1741766517.446889 0.37892596 -0.09343127 0.00344520 0.00100496 -0.00046391 -0.00120771
1741766517.580367 0.38551946 -0.09397167 0.00389044 0.00104284 -0.00087466 -0.00131134
1741766517.713752 0.37967009 -0.08897934 0.00290158 0.00108239 -0.00070200 -0.00125857
1741766517.847221 0.38078113 -0.08088538 0.00368136 0.00100127 -0.00066570 -0.00125003
1741766517.980656 0.38679924 -0.05751276 0.00278404 0.00102626 -0.00107883 -0.00126453
1741766518.114008 0.37471343 -0.04453141 0.00227514 0.00101936 -0.00120866 -0.00123324
1741766518.247405 0.35134657 -0.05063859 0.00064897 0.00109696 -0.00087010 -0.00108889
1741766518.380879 0.35541801 -0.07512892 0.00298790 0.00099644 -0.00047583 -0.00116346
1741766518.514339 0.34206853 -0.07035840 0.00031491 0.00114011 -0.00066503 -0.00111305
1741766518.647792 0.33802581 -0.05589048 -0.00124514 0.00110100 -0.00078771 -0.00115438
1741766518.781405 0.33173853 -0.04349334 -0.00264915 0.00122869 -0.00092236 -0.00126351
1741766518.914607 0.30051004 -0.03049261 -0.00597795 0.00191551 -0.00127771 -0.00119900
1741766519.048107 0.28569131 -0.03619246 -0.00660719 0.00208120 -0.00132179 -0.00113389
1741766519.181526 0.27340933 -0.05110955 -0.00634567 0.00222996 -0.00122851 -0.00097750
1741766519.314989 0.27041435 -0.05472820 -0.00589048 0.00234606 -0.00117915 -0.00106321
1741766519.448388 0.26570610 -0.05307943 -0.00616018 0.00248720 -0.00110790 -0.00112118
1741766519.581776 0.26995277 -0.05955840 -0.00425719 0.00270444 -0.00118095 -0.00123589
1741766519.715230 0.26987199 -0.03996905 -0.00639335 0.00270105 -0.00125393 -0.00150407
1741766519.848712 0.27240426 -0.04161275 -0.00617807 0.00272056 -0.00118145 -0.00168705
1741766519.982112 0.27036336 -0.03796524 -0.00709388 0.00278442 -0.00114378 -0.00185716
1741766520.115541 0.26735447 -0.03521327 -0.00770314 0.00293606 -0.00112520 -0.00192926
1741766520.249009 0.26311843 -0.04085058 -0.00721604 0.00294062 -0.00112508 -0.00177299
1741766520.382454 0.25416441 -0.04297530 -0.00778578 0.00318287 -0.00108807 -0.00180569
1741766520.515858 0.25093196 -0.04158097 -0.00812413 0.00325016 -0.00122761 -0.00185289
1741766520.649355 0.24721093 -0.04022719 -0.00871711 0.00336863 -0.00123773 -0.00187766
1741766520.782761 0.23936041 -0.04279850 -0.00888159 0.00340920 -0.00120077 -0.00175147
1741766520.916272 0.23782574 -0.04404240 -0.00968017 0.00325486 -0.00109883 -0.00188851
1741766521.049574 0.23824788 -0.06131456 -0.00792075 0.00324652 -0.00095820 -0.00190430
1741766521.183020 0.23127809 -0.06800803 -0.00811063 0.00346238 -0.00104724 -0.00171789
1741766521.316471 0.25466081 -0.06748215 -0.00361105 0.00345154 -0.00085758 -0.00180513
1741766521.449939 0.24541613 -0.07108101 -0.00604583 0.00335784 -0.00077871 -0.00164879
1741766521.583317 0.22552699 -0.06989885 -0.00767315 0.00362620 -0.00091336 -0.00153589
1741766521.716839 0.21414618 -0.05632028 -0.00985940 0.00383330 -0.00102352 -0.00168920
1741766521.850119 0.20673729 -0.05150024 -0.01098781 0.00393496 -0.00101279 -0.00173484
1741766521.983769 0.20879778 -0.05739932 -0.00992603 0.00390022 -0.00091912 -0.00186611
1741766522.117063 0.20770297 -0.06575299 -0.00837887 0.00409747 -0.00086186 -0.00170309
1741766522.250455 0.20278855 -0.04164279 -0.01279556 0.00394370 -0.00104759 -0.00221787
1741766522.383985 0.20171944 -0.05052738 -0.01127953 0.00420503 -0.00091093 -0.00195227
1741766522.517465 0.20136650 -0.05126960 -0.01073094 0.00432962 -0.00092914 -0.00169971
1741766522.650858 0.20007473 -0.04601499 -0.01131272 0.00436543 -0.00090143 -0.00179728
1741766522.784240 0.19967901 -0.03912188 -0.01175038 0.00442364 -0.00102636 -0.00194782
1741766522.917661 0.19845845 -0.03760189 -0.01214827 0.00447395 -0.00105454 -0.00194240
1741766523.051343 0.19683112 -0.03816658 -0.01199319 0.00464069 -0.00105805 -0.00196187
1741766523.184652 0.20223897 -0.03498425 -0.01110755 0.00462135 -0.00112440 -0.00209761
1741766523.317997 0.20097093 -0.03188187 -0.01112566 0.00471792 -0.00108639 -0.00207779
1741766523.451657 0.20569712 -0.03107547 -0.01005260 0.00475197 -0.00105855 -0.00200910
1741766523.584859 0.13617987 -0.02721573 -0.02001657 0.00559237 -0.00183462 -0.00087913
1741766523.718308 0.21269975 -0.02521421 -0.00952172 0.00478390 -0.00112498 -0.00198814
1741766523.851635 0.21226288 -0.02385344 -0.00932668 0.00486601 -0.00114368 -0.00197464
1741766523.985256 0.20181446 -0.02080866 -0.01082148 0.00521233 -0.00114457 -0.00205895
1741766524.118519 0.20394938 -0.01921049 -0.01006894 0.00515925 -0.00133444 -0.00226207
1741766524.252100 0.21344051 -0.02211148 -0.00845321 0.00480128 -0.00106459 -0.00245303
1741766524.385391 0.21732182 -0.02220518 -0.00740326 0.00501653 -0.00106809 -0.00253352
1741766524.518866 0.21761341 -0.02308003 -0.00815620 0.00456292 -0.00097424 -0.00248074
1741766524.652331 0.21617750 -0.01884301 -0.00896081 0.00426562 -0.00094866 -0.00223030
1741766524.785754 0.14778940 -0.00364484 -0.02602223 0.00407005 -0.00105487 -0.00048635
1741766524.919182 0.21589027 -0.00434970 -0.00922675 0.00444456 -0.00145797 -0.00203791
1741766525.052561 0.19635891 -0.01118513 -0.01070722 0.00552497 -0.00139477 -0.00197940
1741766525.185979 0.18369915 -0.02918441 -0.00936597 0.00580643 -0.00119305 -0.00229017
1741766525.319519 0.18486106 -0.02769376 -0.00881772 0.00500819 -0.00151377 -0.00269644
1741766525.453073 0.18492097 -0.02589315 -0.00926137 0.00454668 -0.00152752 -0.00286264
1741766525.586388 0.19082676 -0.02709200 -0.00755142 0.00422890 -0.00147722 -0.00300188
1741766525.719908 0.19381128 -0.02575273 -0.00684468 0.00420268 -0.00162650 -0.00308737
1741766525.853271 0.19305205 -0.02366833 -0.00743981 0.00433996 -0.00138602 -0.00300037
1741766525.986712 0.19408268 -0.02400827 -0.00730372 0.00452482 -0.00146442 -0.00294359
1741766526.120007 0.19601514 -0.02372236 -0.00711259 0.00492065 -0.00141933 -0.00293386
1741766526.253520 0.18605070 -0.02611605 -0.00661527 0.00429304 -0.00167419 -0.00303170
1741766526.387367 0.17675064 -0.03848577 -0.00682590 0.00311605 -0.00189730 -0.00303102
1741766526.520351 0.18516040 -0.04201155 -0.00561208 0.00415505 -0.00195414 -0.00285092
1741766526.653901 0.18735036 -0.05804112 -0.00418627 0.00474248 -0.00247917 -0.00299038
1741766526.787297 0.19171196 -0.05007918 -0.00319586 0.00488735 -0.00226500 -0.00300469
1741766526.920809 0.19044298 -0.03978447 -0.00347043 0.00497910 -0.00183681 -0.00308003
1741766527.054104 0.18676272 -0.02556871 -0.00462928 0.00493840 -0.00112484 -0.00316746
1741766527.187679 0.18815801 -0.01907479 -0.00403221 0.00498484 -0.00066437 -0.00329469
1741766527.321033 0.18198736 -0.00296826 -0.00634263 0.00477256 -0.00034580 -0.00341531
1741766527.454624 0.17285805 0.00884190 -0.00842539 0.00446635 -0.00012928 -0.00357880
1741766527.587849 0.16105763 0.01777760 -0.01058948 0.00410867 -0.00018875 -0.00370364
1741766527.721271 0.15091127 0.02467796 -0.01280493 0.00386761 -0.00017630 -0.00376307
1741766527.854947 0.14554621 0.03074056 -0.01412100 0.00376951 -0.00014115 -0.00375189
1741766527.988220 0.14829985 0.02158433 -0.01342545 0.00390586 -0.00054831 -0.00373786
1741766528.121588 0.15361913 0.00799592 -0.01152777 0.00397878 -0.00087523 -0.00365891
1741766528.255211 0.15973520 -0.00119928 -0.00958494 0.00387949 -0.00099694 -0.00390741
1741766528.389068 0.16311245 -0.00634936 -0.00875345 0.00401721 -0.00112538 -0.00401006
1741766528.522065 0.16099185 -0.01259438 -0.00791518 0.00362574 -0.00126093 -0.00411561
1741766528.655532 0.14908127 -0.01401611 -0.00885113 0.00307898 -0.00112243 -0.00403701
1741766528.788744 0.14788705 -0.01610267 -0.00885901 0.00314632 -0.00088189 -0.00386173
1741766528.922390 0.14554669 -0.01911696 -0.00906621 0.00328825 -0.00096105 -0.00369555
1741766529.055816 0.11867326 0.00533263 -0.01937748 0.00355834 -0.00108219 -0.00364803
1741766529.189039 0.14239722 -0.01311769 -0.01143212 0.00409930 -0.00091189 -0.00354133
1741766529.322518 0.13244486 -0.01446022 -0.01174687 0.00301326 -0.00102623 -0.00369087
1741766529.456041 0.12789302 -0.01001203 -0.01260398 0.00282095 -0.00086847 -0.00367405
1741766529.589629 0.12948849 -0.00932683 -0.01269406 0.00298932 -0.00089447 -0.00353259
1741766529.722910 0.13196322 -0.01260601 -0.01180243 0.00293257 -0.00093578 -0.00351404
1741766529.856369 0.13716005 -0.01514734 -0.01051812 0.00297611 -0.00083094 -0.00348869
1741766529.989649 0.13654409 0.00365045 -0.01127939 0.00291837 0.00030629 -0.00336827
1741766530.123211 0.13546541 0.00348371 -0.01214850 0.00322846 -0.00004985 -0.00326910
1741766530.256538 0.13304449 -0.01025990 -0.01152492 0.00293872 -0.00101100 -0.00328979
1741766530.390026 0.13401297 -0.01487412 -0.01120145 0.00315940 -0.00125092 -0.00336597
1741766530.523290 0.11678680 -0.02588099 -0.01303321 0.00294344 -0.00148958 -0.00376562
1741766530.656736 0.12226342 -0.03207675 -0.01026200 0.00230041 -0.00141439 -0.00373449
1741766530.790372 0.13214885 -0.02090207 -0.00945896 0.00251167 -0.00126010 -0.00329964
1741766530.923612 0.13275602 -0.03250332 -0.00864655 0.00252485 -0.00209681 -0.00312416
1741766531.057144 0.13136343 -0.03319632 -0.00774547 0.00232735 -0.00113036 -0.00299305
1741766531.190479 0.13067398 -0.02828619 -0.00912990 0.00250349 -0.00130395 -0.00280582
1741766531.323907 0.13705268 -0.01974406 -0.01001285 0.00257548 -0.00148425 -0.00251688
1741766531.457385 0.13115517 -0.03128404 -0.00906340 0.00252892 -0.00125817 -0.00261649
1741766531.590846 0.13112520 -0.03654118 -0.00841721 0.00272967 -0.00103781 -0.00261486
1741766531.724228 0.13100708 -0.03603882 -0.00866911 0.00285362 -0.00097146 -0.00266031
1741766531.857724 0.13151802 -0.03401746 -0.00904009 0.00285091 -0.00091852 -0.00264680
1741766531.991143 0.13197426 -0.03111705 -0.00925502 0.00269896 -0.00096484 -0.00266404
1741766532.124583 0.13279865 -0.03091622 -0.00913650 0.00269759 -0.00090163 -0.00270283
1741766532.258026 0.13357547 -0.03115270 -0.00896419 0.00261088 -0.00092276 -0.00270084
1741766532.391509 0.13372718 -0.03083516 -0.00941926 0.00272624 -0.00102336 -0.00268829
1741766532.524847 0.13537615 -0.03299772 -0.00875793 0.00266055 -0.00112022 -0.00268195
1741766532.658503 0.13482555 -0.02985298 -0.00968338 0.00261259 -0.00103894 -0.00275470
1741766532.791957 0.13973547 -0.02245823 -0.00892290 0.00261610 -0.00114124 -0.00284728
1741766532.925232 0.13815618 -0.02039693 -0.00994613 0.00255866 -0.00092614 -0.00284351
1741766533.059106 0.14195991 -0.01936695 -0.00959346 0.00262464 -0.00113220 -0.00285663
1741766533.192238 0.11456360 -0.04264983 -0.01338936 0.00225042 -0.00142789 -0.00277071
1741766533.325678 0.14137241 -0.01316840 -0.01135578 0.00256413 -0.00111619 -0.00287337
1741766533.458922 0.14748439 -0.02093264 -0.00892745 0.00247972 -0.00111815 -0.00287375
1741766533.592427 0.14581400 -0.01298518 -0.00986952 0.00246301 -0.00098502 -0.00294784
1741766533.725778 0.15063017 -0.02235695 -0.00830079 0.00256600 -0.00111876 -0.00281707
1741766533.859378 0.14400776 -0.01879879 -0.00988255 0.00239960 -0.00108728 -0.00308431
1741766533.992822 0.15015888 -0.02053757 -0.00854992 0.00253402 -0.00101333 -0.00302262
1741766534.126114 0.14514843 -0.01452796 -0.00930350 0.00230723 -0.00075826 -0.00298048
1741766534.259532 0.14637523 -0.01409638 -0.00930567 0.00239399 -0.00081666 -0.00304388
1741766534.392955 0.14606996 -0.04073536 -0.00964415 0.00246413 -0.00190484 -0.00278678
1741766534.526473 0.14994838 -0.04223886 -0.00821919 0.00257233 -0.00182279 -0.00282357
1741766534.659822 0.14946471 -0.05094337 -0.00565346 0.00227341 -0.00165892 -0.00316060
1741766534.793296 0.14521122 -0.04672581 -0.00663611 0.00223844 -0.00162334 -0.00285393
1741766534.927052 0.13443036 -0.02899507 -0.01081594 0.00187466 -0.00167614 -0.00249661
1741766535.060099 0.14134798 -0.04886802 -0.00779114 0.00204206 -0.00195834 -0.00270130
1741766535.193497 0.14596917 -0.03880502 -0.00603722 0.00183339 -0.00142896 -0.00247403
1741766535.327036 0.12398982 -0.05157916 -0.01057278 0.00157386 -0.00214951 -0.00282311
1741766535.460535 0.14360164 -0.04359961 -0.00614961 0.00172263 -0.00154311 -0.00207129
1741766535.594027 0.14602839 -0.04327127 -0.00574185 0.00188650 -0.00140828 -0.00200311
1741766535.727443 0.15023324 -0.03813055 -0.00362302 0.00184232 -0.00070197 -0.00164792
1741766535.860806 0.13973842 -0.04208681 -0.00583788 0.00168440 -0.00092136 -0.00228930
1741766535.994226 0.14024195 -0.05521717 -0.00607428 0.00172032 -0.00138332 -0.00189077
1741766536.127551 0.13606602 -0.05021140 -0.00634494 0.00152659 -0.00120893 -0.00194880
1741766536.261057 0.13868010 -0.04820031 -0.00364223 0.00125936 -0.00054019 -0.00124247
1741766536.394474 0.12724874 -0.04838807 -0.00789240 0.00150537 -0.00140450 -0.00293658
1741766536.527914 0.13354545 -0.05842748 -0.00474412 0.00122101 -0.00133637 -0.00184314
1741766536.661486 0.14017707 -0.05605007 -0.00318901 0.00130634 -0.00109997 -0.00192220
1741766536.762488 0.12815737 -0.05097196 -0.00664262 0.00122202 -0.00130690 -0.00165853
1741766536.928371 0.12541555 -0.04833419 -0.00682433 0.00120016 -0.00125049 -0.00264194
1741766537.061618 0.13013769 -0.04797065 -0.00532658 0.00117214 -0.00104257 -0.00265943
1741766537.195284 0.12112358 -0.04740260 -0.00790146 0.00121817 -0.00130407 -0.00276240
1741766537.328535 0.11361734 -0.05299823 -0.00608790 0.00106041 -0.00133149 -0.00273318
1741766537.461944 0.11772683 -0.05195749 -0.00787783 0.00106982 -0.00137923 -0.00258165
1741766537.562258 0.10441973 -0.05223514 -0.00740524 0.00093812 -0.00141933 -0.00213015
1741766537.698525 0.11631100 -0.04831062 -0.00855247 0.00113604 -0.00145154 -0.00202411
1741766537.829138 0.12433479 -0.04468517 -0.00554165 0.00104499 -0.00107067 -0.00200501
1741766537.962501 0.11850670 -0.04604202 -0.00746762 0.00100762 -0.00131483 -0.00199949
1741766538.095705 0.11761729 -0.04578994 -0.00782089 0.00099427 -0.00131060 -0.00192165
1741766538.229154 0.11725642 -0.04469533 -0.00796345 0.00096610 -0.00129890 -0.00185532
1741766538.362549 0.11621431 -0.04460407 -0.00805872 0.00091029 -0.00125699 -0.00181974
1741766538.495919 0.11577850 -0.04426549 -0.00773630 0.00090370 -0.00118775 -0.00181090
1741766538.629433 0.11597841 -0.04513430 -0.00755160 0.00094369 -0.00116426 -0.00180177
1741766538.762774 0.11514518 -0.04463573 -0.00783645 0.00092311 -0.00114425 -0.00179426
1741766538.896332 0.11427786 -0.04605615 -0.00794968 0.00095631 -0.00116057 -0.00176929
1741766539.029752 0.11562211 -0.04545008 -0.00742038 0.00093542 -0.00109007 -0.00179861
1741766539.163141 0.11697595 -0.04664772 -0.00712526 0.00091814 -0.00106603 -0.00177033
1741766539.296660 0.11494370 -0.04564554 -0.00755549 0.00089244 -0.00104391 -0.00176065
1741766539.429980 0.11313485 -0.04452450 -0.00776116 0.00086751 -0.00107716 -0.00180636
1741766539.563410 0.11109193 -0.04500656 -0.00799560 0.00082968 -0.00109737 -0.00180331
1741766539.696851 0.11039472 -0.04618788 -0.00747489 0.00086653 -0.00105284 -0.00181251
1741766539.830497 0.11114634 -0.04670285 -0.00722432 0.00086130 -0.00094871 -0.00180896
1741766539.963718 0.11146777 -0.04774074 -0.00703146 0.00083300 -0.00088919 -0.00176796
1741766540.097296 0.11227622 -0.04923691 -0.00669752 0.00083409 -0.00083732 -0.00172211
1741766540.230709 0.11096848 -0.04785784 -0.00717462 0.00082201 -0.00079147 -0.00172683
1741766540.364027 0.10801543 -0.04445396 -0.00853636 0.00074912 -0.00084876 -0.00163966
1741766540.497459 0.10225150 -0.04059906 -0.01043032 0.00071132 -0.00101838 -0.00158366
1741766540.631135 0.10823686 -0.04606122 -0.00843846 0.00068771 -0.00096052 -0.00160516
1741766540.764428 0.11259298 -0.05010277 -0.00691389 0.00061668 -0.00083678 -0.00169762
1741766540.898008 0.11301485 -0.05218651 -0.00660678 0.00058785 -0.00079175 -0.00157941
1741766541.031341 0.10561448 -0.04886206 -0.00855548 0.00057925 -0.00087357 -0.00157877
1741766541.164599 0.10969181 -0.05335270 -0.00707524 0.00048502 -0.00078044 -0.00155039
1741766541.298088 0.10692809 -0.05062729 -0.00775999 0.00043203 -0.00076711 -0.00154031
1741766541.431498 0.10363030 -0.05575224 -0.00769835 0.00033711 -0.00076321 -0.00140209
1741766541.564917 0.09750090 -0.04648595 -0.01025024 0.00039916 -0.00091782 -0.00157055
1741766541.698327 0.09871299 -0.04594637 -0.00955068 0.00040140 -0.00084544 -0.00163909
1741766541.831835 0.09927350 -0.04636053 -0.00919828 0.00034269 -0.00082641 -0.00165172
1741766541.965266 0.09893447 -0.04715798 -0.00910798 0.00030683 -0.00086712 -0.00169914
1741766542.098643 0.09953432 -0.04810013 -0.00873933 0.00027106 -0.00089410 -0.00172312
1741766542.232109 0.10043286 -0.04737144 -0.00858389 0.00030938 -0.00083316 -0.00171929
1741766542.365509 0.10107848 -0.04581633 -0.00855055 0.00034043 -0.00063344 -0.00174197
1741766542.499011 0.09850922 -0.04990681 -0.00858267 0.00021479 -0.00089847 -0.00175657
1741766542.632417 0.09748041 -0.05038952 -0.00875789 0.00013768 -0.00099012 -0.00174403
1741766542.765823 0.09843003 -0.04955169 -0.00855373 0.00020550 -0.00085338 -0.00168077
1741766542.899259 0.09931117 -0.04832538 -0.00868340 0.00015985 -0.00079809 -0.00159594
1741766543.032681 0.09967863 -0.04894056 -0.00839483 0.00023216 -0.00077136 -0.00153355
1741766543.166101 0.09949161 -0.05006172 -0.00823845 0.00028572 -0.00071016 -0.00143751
1741766543.299583 0.09714064 -0.05394717 -0.00771013 0.00024847 -0.00058250 -0.00167811
1741766543.432965 0.09731444 -0.05599841 -0.00721803 0.00021607 -0.00052678 -0.00174995
1741766543.566507 0.09765769 -0.05674174 -0.00688555 0.00026926 -0.00050352 -0.00170229
1741766543.699848 0.09692534 -0.04896791 -0.00897224 0.00024060 -0.00073021 -0.00143639
1741766543.833302 0.09745312 -0.05122413 -0.00835791 0.00027121 -0.00071036 -0.00134053
1741766543.966712 0.09786341 -0.04947572 -0.00836255 0.00023935 -0.00072970 -0.00137250
1741766544.100164 0.09648948 -0.04731791 -0.00880460 0.00029708 -0.00076286 -0.00143008
1741766544.233614 0.09694031 -0.04817979 -0.00856746 0.00033073 -0.00076615 -0.00140036
1741766544.367033 0.09642078 -0.04667474 -0.00871838 0.00038745 -0.00082507 -0.00145441
1741766544.500461 0.09835581 -0.04639682 -0.00856225 0.00035847 -0.00083092 -0.00148913
1741766544.633958 0.09566835 -0.04557671 -0.00934890 0.00040957 -0.00087562 -0.00156008
1741766544.767437 0.09880568 -0.04676764 -0.00727783 0.00047304 -0.00074514 -0.00172727
1741766544.900813 0.09088002 -0.04654307 -0.00918256 0.00056767 -0.00088862 -0.00164462
1741766545.034212 0.09203227 -0.04703844 -0.00914148 0.00051647 -0.00087909 -0.00162951
1741766545.167637 0.09319159 -0.04677052 -0.00878166 0.00054700 -0.00088590 -0.00155194
1741766545.301058 0.09225594 -0.04647090 -0.00877680 0.00062395 -0.00089996 -0.00153634
1741766545.434499 0.09166280 -0.04693152 -0.00890042 0.00065159 -0.00090896 -0.00151643
1741766545.567944 0.09087849 -0.04704357 -0.00914623 0.00066533 -0.00095711 -0.00156294
1741766545.701375 0.09290113 -0.04496330 -0.00858870 0.00068935 -0.00097842 -0.00154670
1741766545.834847 0.09275982 -0.04502006 -0.00848097 0.00069447 -0.00095229 -0.00157664
1741766545.968376 0.09096376 -0.04562043 -0.00891130 0.00072605 -0.00096437 -0.00158789
1741766546.101679 0.09040872 -0.04457513 -0.00903487 0.00075364 -0.00100192 -0.00159827
1741766546.235142 0.09081234 -0.04269783 -0.00876296 0.00081361 -0.00105452 -0.00156359
1741766546.368652 0.08967150 -0.04292375 -0.00875850 0.00090510 -0.00104531 -0.00153562
1741766546.501999 0.09153445 -0.04390505 -0.00844123 0.00088395 -0.00099203 -0.00156239
1741766546.635415 0.08974605 -0.04224967 -0.00871320 0.00098223 -0.00113590 -0.00161688
1741766546.768820 0.08908753 -0.04095336 -0.00871995 0.00108759 -0.00115430 -0.00168504
1741766546.902376 0.08940561 -0.04161902 -0.00859639 0.00110831 -0.00107508 -0.00169984
1741766547.035768 0.08851685 -0.04126071 -0.00862287 0.00115564 -0.00107324 -0.00164157
1741766547.169158 0.08918020 -0.04086945 -0.00832930 0.00114830 -0.00107920 -0.00163073
1741766547.302662 0.08951183 -0.04049661 -0.00845298 0.00115842 -0.00109373 -0.00169580
1741766547.436002 0.09020868 -0.04164619 -0.00812569 0.00118298 -0.00103472 -0.00171728
1741766547.569579 0.08953506 -0.04158555 -0.00812199 0.00119596 -0.00100615 -0.00169924
1741766547.702905 0.09102783 -0.04009532 -0.00751854 0.00116641 -0.00098501 -0.00171494
1741766547.836279 0.09130416 -0.03894772 -0.00844260 0.00115573 -0.00110300 -0.00175627
1741766547.969792 0.09264369 -0.03913330 -0.00812730 0.00119272 -0.00108300 -0.00177072
1741766548.103268 0.09359512 -0.03787899 -0.00787535 0.00120213 -0.00109445 -0.00181398
1741766548.236643 0.09318565 -0.04002596 -0.00774371 0.00121441 -0.00099837 -0.00180616
1741766548.370101 0.09281381 -0.04107658 -0.00769748 0.00121487 -0.00093959 -0.00177271
1741766548.503444 0.09337576 -0.04068605 -0.00775131 0.00120536 -0.00098161 -0.00171168
1741766548.636964 0.09396786 -0.03999064 -0.00782846 0.00120103 -0.00101927 -0.00172094
1741766548.770392 0.09403814 -0.04212665 -0.00747211 0.00123622 -0.00094130 -0.00173315
1741766548.903811 0.09424787 -0.04292963 -0.00786234 0.00119418 -0.00092285 -0.00171040
1741766549.037314 0.09440807 -0.04213201 -0.00782230 0.00121024 -0.00099401 -0.00170539
1741766549.170797 0.09098343 -0.03853517 -0.00902851 0.00127483 -0.00109823 -0.00178844
1741766549.304149 0.09101156 -0.03786489 -0.00933899 0.00125652 -0.00110790 -0.00182434
1741766549.437617 0.07413047 -0.04867825 -0.01069569 0.00118488 -0.00125403 -0.00017508
1741766549.571217 0.09223410 -0.03919269 -0.00928829 0.00127895 -0.00115815 -0.00170266
1741766549.704546 0.09247008 -0.03798574 -0.00987563 0.00122168 -0.00122088 -0.00169035
1741766549.837902 0.09274745 -0.03795591 -0.00976306 0.00123425 -0.00124961 -0.00169767
1741766549.971416 0.09112921 -0.03670155 -0.00991207 0.00129268 -0.00129149 -0.00164827
1741766550.104694 0.09260743 -0.03965401 -0.00893103 0.00133201 -0.00118488 -0.00160362
1741766550.238178 0.09356401 -0.03841890 -0.00931164 0.00125996 -0.00123304 -0.00174570
1741766550.371671 0.09505119 -0.03967963 -0.00872860 0.00130792 -0.00122546 -0.00168130
1741766550.505023 0.09479307 -0.03962990 -0.00857332 0.00135918 -0.00123448 -0.00170873
1741766550.638407 0.09530820 -0.03983206 -0.00833530 0.00134042 -0.00122180 -0.00172386
1741766550.771860 0.09447267 -0.03947925 -0.00832488 0.00133408 -0.00123438 -0.00173362
1741766550.905361 0.09359400 -0.03866467 -0.00819574 0.00130168 -0.00127990 -0.00171885
1741766551.038878 0.09129270 -0.03808207 -0.00794836 0.00138176 -0.00121042 -0.00173688
1741766551.172277 0.09125976 -0.03826677 -0.00820956 0.00133898 -0.00119826 -0.00177021
1741766551.305659 0.09312209 -0.03807325 -0.00810501 0.00134905 -0.00118549 -0.00181205
1741766551.439106 0.09341183 -0.03784402 -0.00799121 0.00136272 -0.00119460 -0.00180546
1741766551.572468 0.09306631 -0.03872821 -0.00594258 0.00148981 -0.00105495 -0.00160891
1741766551.705930 0.09343691 -0.03875762 -0.00786490 0.00135526 -0.00113405 -0.00178203
1741766551.839262 0.09415822 -0.04019343 -0.00739433 0.00137517 -0.00113900 -0.00176351
1741766551.972773 0.09376921 -0.03960585 -0.00783611 0.00140598 -0.00114498 -0.00175814
1741766552.106418 0.09513007 -0.04035864 -0.00789363 0.00149156 -0.00118184 -0.00177701
1741766552.239834 0.09840813 -0.03876171 -0.00769150 0.00161320 -0.00103453 -0.00183013
1741766552.373023 0.09739035 -0.03860940 -0.00802194 0.00146009 -0.00106536 -0.00189263
1741766552.506481 0.09625578 -0.04158323 -0.00794931 0.00136613 -0.00110761 -0.00189245
1741766552.639937 0.09576436 -0.04291284 -0.00815685 0.00131734 -0.00113137 -0.00190305
1741766552.773400 0.09595939 -0.04558037 -0.00785478 0.00134752 -0.00116572 -0.00184215
1741766552.906906 0.09565527 -0.04580691 -0.00800057 0.00135151 -0.00109339 -0.00178001
1741766553.040284 0.09133169 -0.03603464 -0.00937395 0.00132046 -0.00111069 -0.00181138
1741766553.173709 0.09870634 -0.04744644 -0.00775022 0.00140754 -0.00111281 -0.00168157
1741766553.307182 0.09938217 -0.04622243 -0.00792198 0.00143053 -0.00108270 -0.00164655
1741766553.440552 0.09950766 -0.04796494 -0.00790744 0.00141035 -0.00107998 -0.00163537
1741766553.574014 0.09960496 -0.04763461 -0.00820384 0.00138099 -0.00111862 -0.00162974
1741766553.707531 0.09987432 -0.04961972 -0.00736760 0.00143895 -0.00113336 -0.00161867
1741766553.840917 0.10010088 -0.04977502 -0.00738328 0.00146018 -0.00104907 -0.00160720
1741766553.974441 0.09982780 -0.04918555 -0.00755188 0.00140318 -0.00103317 -0.00159081
1741766554.107755 0.09949510 -0.04870659 -0.00797851 0.00139999 -0.00107717 -0.00153698
1741766554.241203 0.09856168 -0.04844437 -0.00822709 0.00146430 -0.00101419 -0.00151896
1741766554.374630 0.09877077 -0.04921139 -0.00798719 0.00146878 -0.00094365 -0.00150378
1741766554.508117 0.09932897 -0.04781894 -0.00814116 0.00141253 -0.00098899 -0.00149749
1741766554.641464 0.09933760 -0.04643059 -0.00793879 0.00141080 -0.00109308 -0.00152585
1741766554.775098 0.10032070 -0.04574619 -0.00715460 0.00132835 -0.00106807 -0.00155577
1741766554.908505 0.10040717 -0.04603784 -0.00711586 0.00131857 -0.00100071 -0.00156191
1741766555.042000 0.10028966 -0.04596836 -0.00711241 0.00132782 -0.00096171 -0.00156553
1741766555.175262 0.10009937 -0.04613565 -0.00724067 0.00133730 -0.00093628 -0.00157718
1741766555.308702 0.09949478 -0.04646070 -0.00747638 0.00136305 -0.00094633 -0.00157044
1741766555.442089 0.09949409 -0.04643999 -0.00751776 0.00136189 -0.00093564 -0.00158524
1741766555.575529 0.09931896 -0.04638754 -0.00754542 0.00138038 -0.00092158 -0.00158173
1741766555.709057 0.09921920 -0.04619040 -0.00748405 0.00138735 -0.00093125 -0.00160972
1741766555.842407 0.09937632 -0.04625042 -0.00738507 0.00136991 -0.00097126 -0.00163110
1741766555.975940 0.09951237 -0.04635782 -0.00751183 0.00141750 -0.00101655 -0.00163469
1741766556.109408 0.10008664 -0.04606502 -0.00720829 0.00144925 -0.00092705 -0.00162435
1741766556.242684 0.10024290 -0.04623566 -0.00717846 0.00138543 -0.00092665 -0.00156806
1741766556.376109 0.10083951 -0.04637961 -0.00693225 0.00136148 -0.00090356 -0.00152125
1741766556.509536 0.09943008 -0.04617888 -0.00749960 0.00136221 -0.00095426 -0.00147726
1741766556.643064 0.09892308 -0.04628162 -0.00746403 0.00137944 -0.00094189 -0.00144620
1741766556.776450 0.09809784 -0.04533777 -0.00796394 0.00138821 -0.00091408 -0.00141657
1741766556.909916 0.09920703 -0.04686715 -0.00707197 0.00140630 -0.00087372 -0.00139533
1741766557.043321 0.09951280 -0.04689934 -0.00701862 0.00137455 -0.00087373 -0.00141297
1741766557.176871 0.09904207 -0.04642462 -0.00737762 0.00136776 -0.00091463 -0.00143230
1741766557.310165 0.09818782 -0.04664688 -0.00759554 0.00141477 -0.00089570 -0.00144779
1741766557.443606 0.09942748 -0.04608807 -0.00650624 0.00140285 -0.00080967 -0.00145649
1741766557.577051 0.09757386 -0.04669904 -0.00771710 0.00140077 -0.00085991 -0.00141786
1741766557.710506 0.09752833 -0.04665581 -0.00737440 0.00137952 -0.00086147 -0.00141892
1741766557.843989 0.09581003 -0.05048398 -0.00714445 0.00148603 -0.00101826 -0.00139368
1741766557.977429 0.09608500 -0.04459545 -0.00716178 0.00137606 -0.00099054 -0.00155006
1741766558.110914 0.09587802 -0.04394235 -0.00743566 0.00140038 -0.00081413 -0.00153050
1741766558.244381 0.09407348 -0.05212136 -0.00966306 0.00142604 -0.00109108 -0.00124342
1741766558.377663 0.09556660 -0.04406356 -0.00763172 0.00139965 -0.00082261 -0.00145843
1741766558.511163 0.09536129 -0.04381280 -0.00767808 0.00139058 -0.00077625 -0.00145306
1741766558.644831 0.09551100 -0.04419843 -0.00735864 0.00139748 -0.00076594 -0.00147878
1741766558.777986 0.09517920 -0.04367299 -0.00762628 0.00142118 -0.00078845 -0.00144773
1741766558.911374 0.09385233 -0.04325104 -0.00792472 0.00142500 -0.00073003 -0.00142981
1741766559.044799 0.09052901 -0.04411439 -0.00803922 0.00136211 -0.00065829 -0.00145483
1741766559.178325 0.08925554 -0.04406228 -0.00823995 0.00134395 -0.00071351 -0.00142174
1741766559.311761 0.08943354 -0.04333136 -0.00813253 0.00133370 -0.00073608 -0.00140843
1741766559.445219 0.08845685 -0.04333379 -0.00834428 0.00128383 -0.00083477 -0.00139557
1741766559.578567 0.08735622 -0.04353216 -0.00849026 0.00132607 -0.00074527 -0.00137625
1741766559.712078 0.08402509 -0.04140161 -0.00882129 0.00127994 -0.00070016 -0.00136712
1741766559.845480 0.08206660 -0.04028270 -0.00890009 0.00125805 -0.00069377 -0.00136396
1741766559.979185 0.08124073 -0.03947142 -0.00896850 0.00123891 -0.00072275 -0.00135806
1741766560.112319 0.07957177 -0.03456484 -0.00905970 0.00117147 -0.00069102 -0.00138608
1741766560.245743 0.07982871 -0.04064320 -0.00873599 0.00117799 -0.00072537 -0.00137003
1741766560.379248 0.08098748 -0.04252147 -0.00853885 0.00122185 -0.00078805 -0.00135812
1741766560.512606 0.08180095 -0.04234127 -0.00841156 0.00119270 -0.00078787 -0.00134539
1741766560.646025 0.08365147 -0.04270480 -0.00833941 0.00119648 -0.00078373 -0.00134474
1741766560.779475 0.08334374 -0.04045829 -0.00848247 0.00123373 -0.00071197 -0.00131118
1741766560.913077 0.08333446 -0.04147645 -0.00844039 0.00121167 -0.00075519 -0.00129379
1741766561.046335 0.08501764 -0.04203763 -0.00836491 0.00129343 -0.00075633 -0.00125862
1741766561.179828 0.08695567 -0.04252455 -0.00811564 0.00132183 -0.00076271 -0.00125225
1741766561.313122 0.08607571 -0.04533133 -0.00739601 0.00064581 -0.00141118 -0.00120215
1741766561.446598 0.08802861 -0.04199130 -0.00739248 0.00102548 -0.00068685 -0.00132486
1741766561.580116 0.08714927 -0.03451239 -0.00778811 0.00108601 -0.00054036 -0.00132586
1741766561.713718 0.07974668 -0.04179728 -0.00855690 0.00108566 -0.00068001 -0.00134940
1741766561.846886 0.08254995 -0.02999318 -0.00848300 0.00108995 -0.00058458 -0.00127710
1741766561.980267 0.08284686 -0.03036921 -0.00843904 0.00109258 -0.00056944 -0.00125562
1741766562.113781 0.08150544 -0.03029048 -0.00851323 0.00108034 -0.00056027 -0.00122995
1741766562.247175 0.08114368 -0.03025213 -0.00851480 0.00106986 -0.00055908 -0.00121571
1741766562.380684 0.08096523 -0.03028556 -0.00849403 0.00107394 -0.00055170 -0.00120388
1741766562.514045 0.08139062 -0.03055636 -0.00846421 0.00107447 -0.00055057 -0.00119506
1741766562.647435 0.08177026 -0.03103551 -0.00844227 0.00107984 -0.00054953 -0.00119697
1741766562.780938 0.08133847 -0.03058984 -0.00849592 0.00108882 -0.00054815 -0.00118355
1741766562.914552 0.08184577 -0.03111090 -0.00850717 0.00107857 -0.00055202 -0.00117477
1741766563.047844 0.08130507 -0.03032243 -0.00857905 0.00107700 -0.00054369 -0.00116748
1741766563.181223 0.08101013 -0.03008744 -0.00864772 0.00106711 -0.00054079 -0.00116013
1741766563.314901 0.08099238 -0.03001065 -0.00866353 0.00106880 -0.00054272 -0.00115176
1741766563.448104 0.08125320 -0.03014076 -0.00861168 0.00106728 -0.00054352 -0.00114148
1741766563.581523 0.08119676 -0.03006145 -0.00863030 0.00106657 -0.00053819 -0.00113439
1741766563.714949 0.08118788 -0.03001455 -0.00864037 0.00106458 -0.00053443 -0.00112412
1741766563.848417 0.08153297 -0.03021639 -0.00861650 0.00107457 -0.00053827 -0.00111099
1741766563.981893 0.08180164 -0.03054512 -0.00858819 0.00106752 -0.00053652 -0.00110228
1741766564.115298 0.08160800 -0.03029692 -0.00860833 0.00106504 -0.00053182 -0.00109327
1741766564.248632 0.08157493 -0.03026460 -0.00861704 0.00106083 -0.00052870 -0.00108308
1741766564.382314 0.08157213 -0.03024555 -0.00861861 0.00105622 -0.00052355 -0.00107308
1741766564.515550 0.08151961 -0.03018246 -0.00863349 0.00105309 -0.00051903 -0.00106362
1741766564.649016 0.08146251 -0.03011775 -0.00865078 0.00105061 -0.00051724 -0.00105362
1741766564.782468 0.08142348 -0.03007085 -0.00866410 0.00104865 -0.00051545 -0.00104378
1741766564.915840 0.08143500 -0.03005402 -0.00866601 0.00104889 -0.00051413 -0.00104167
1741766565.049210 0.08159001 -0.03019171 -0.00865284 0.00108176 -0.00055764 -0.00108252
1741766565.183214 0.08159486 -0.03020285 -0.00865544 0.00108339 -0.00056390 -0.00107265
1741766565.316230 0.08159872 -0.03020449 -0.00865811 0.00108461 -0.00057218 -0.00106487
1741766565.449668 0.08155291 -0.03019751 -0.00866796 0.00108576 -0.00057816 -0.00105666
1741766565.583128 0.08155969 -0.03020570 -0.00866653 0.00108553 -0.00057820 -0.00105288
1741766565.716427 0.08110046 -0.02977902 -0.00871293 0.00106807 -0.00058208 -0.00105448
1741766565.849924 0.08135948 -0.02994588 -0.00868668 0.00107750 -0.00057131 -0.00103874
1741766565.983268 0.08149477 -0.03111520 -0.00867280 0.00107806 -0.00057587 -0.00102851
1741766566.116791 0.08153180 -0.03110660 -0.00867325 0.00107486 -0.00057689 -0.00101660
1741766566.250289 0.08144270 -0.03109833 -0.00868437 0.00106996 -0.00057213 -0.00100651
1741766566.383678 0.08143936 -0.03107321 -0.00868150 0.00106642 -0.00056806 -0.00099669
1741766566.517166 0.08144647 -0.03109586 -0.00867434 0.00106318 -0.00056640 -0.00098608
1741766566.650501 0.08127622 -0.03095938 -0.00871679 0.00105417 -0.00056716 -0.00097822
1741766566.783926 0.08162861 -0.03108413 -0.00861398 0.00106092 -0.00055766 -0.00097085
1741766566.917394 0.08125611 -0.03088348 -0.00872176 0.00106686 -0.00055690 -0.00095413
1741766567.050855 0.08125611 -0.03088348 -0.00872176 0.00106686 -0.00055690 -0.00095413
1741766567.184244 0.08113847 -0.03091819 -0.00876464 0.00104520 -0.00056171 -0.00093618
1741766567.317767 0.08220935 -0.03152556 -0.00866451 0.00104966 -0.00055717 -0.00093323
1741766567.451241 0.08221324 -0.03160475 -0.00866291 0.00104930 -0.00055653 -0.00092664
1741766567.584587 0.08209976 -0.03158313 -0.00867323 0.00104491 -0.00055436 -0.00092035
1741766567.717980 0.08209147 -0.03164338 -0.00867129 0.00104748 -0.00056100 -0.00091234
1741766567.851387 0.08209516 -0.03158426 -0.00867123 0.00104791 -0.00055731 -0.00089907
1741766567.984920 0.08217943 -0.03149413 -0.00866549 0.00105196 -0.00055226 -0.00088984
1741766568.118306 0.08260237 -0.03206573 -0.00863900 0.00104946 -0.00054950 -0.00088429
1741766568.251711 0.08264366 -0.03220211 -0.00863397 0.00105723 -0.00055742 -0.00087272
1741766568.385250 0.08274740 -0.03217135 -0.00861153 0.00105219 -0.00055501 -0.00086328
1741766568.518581 0.08268305 -0.03215910 -0.00861725 0.00105168 -0.00055246 -0.00085324
1741766568.652113 0.08273302 -0.03212441 -0.00861381 0.00104863 -0.00054909 -0.00084443
1741766568.785572 0.08264084 -0.03213501 -0.00862384 0.00104010 -0.00054298 -0.00084073
1741766568.918942 0.08329556 -0.03256321 -0.00858385 0.00103993 -0.00053924 -0.00083366
1741766569.052308 0.08329354 -0.03247281 -0.00859501 0.00103520 -0.00053899 -0.00082683
1741766569.185826 0.08328448 -0.03248703 -0.00859119 0.00103550 -0.00053734 -0.00081838
1741766569.319335 0.08325213 -0.03251357 -0.00858394 0.00103235 -0.00053268 -0.00081155
1741766569.452801 0.08319951 -0.03248568 -0.00859055 0.00102790 -0.00052936 -0.00080334
1741766569.586268 0.08315883 -0.03243274 -0.00860027 0.00102149 -0.00052542 -0.00079572
1741766569.719613 0.08308817 -0.03240585 -0.00861205 0.00101633 -0.00052220 -0.00078776
1741766569.853096 0.08316539 -0.03239690 -0.00860328 0.00101530 -0.00052079 -0.00078005
1741766569.986571 0.08329428 -0.03236157 -0.00859884 0.00101516 -0.00052231 -0.00077239
1741766570.119824 0.08322908 -0.03239004 -0.00859835 0.00101313 -0.00051724 -0.00076358
1741766570.253296 0.08323713 -0.03235104 -0.00860192 0.00101051 -0.00051485 -0.00075645
1741766570.386750 0.08325038 -0.03233275 -0.00860224 0.00100775 -0.00051317 -0.00074806
1741766570.520096 0.08327513 -0.03235205 -0.00859472 0.00100397 -0.00051136 -0.00074063
1741766570.653584 0.08324049 -0.03231958 -0.00860756 0.00100406 -0.00051256 -0.00073363
1741766570.787020 0.08320892 -0.03229572 -0.00861655 0.00099946 -0.00051210 -0.00072650
1741766570.920399 0.08321325 -0.03227987 -0.00861593 0.00099713 -0.00050786 -0.00071856
1741766571.053824 0.08323346 -0.03227676 -0.00861215 0.00099412 -0.00050453 -0.00071169
1741766571.187335 0.08324715 -0.03227796 -0.00861036 0.00099124 -0.00050353 -0.00070500
1741766571.320752 0.08327975 -0.03230176 -0.00860368 0.00098903 -0.00050459 -0.00069774
1741766571.454165 0.08333090 -0.03233398 -0.00859337 0.00098937 -0.00050419 -0.00069027
1741766571.587557 0.08332037 -0.03230660 -0.00859750 0.00098684 -0.00050029 -0.00068361
1741766571.721072 0.08331304 -0.03227805 -0.00860322 0.00098491 -0.00049991 -0.00067785
1741766571.854463 0.08331363 -0.03229269 -0.00860205 0.00098194 -0.00050275 -0.00067125
1741766571.988035 0.08332056 -0.03228662 -0.00860155 0.00098076 -0.00050002 -0.00066495
1741766572.121317 0.08329166 -0.03225199 -0.00861041 0.00097868 -0.00050023 -0.00065861
1741766572.254889 0.08329609 -0.03224256 -0.00861106 0.00097857 -0.00050178 -0.00065172
1741766572.388255 0.08330141 -0.03224392 -0.00860879 0.00097597 -0.00049946 -0.00064503
1741766572.521656 0.08328559 -0.03220550 -0.00861460 0.00097284 -0.00049628 -0.00063609
1741766572.655065 0.08329454 -0.03218839 -0.00861474 0.00097120 -0.00049522 -0.00062812
1741766572.788507 0.08328697 -0.03216614 -0.00861810 0.00097029 -0.00049173 -0.00062022
1741766572.921988 0.08323410 -0.03215639 -0.00862597 0.00096440 -0.00049205 -0.00061276
1741766573.055331 0.08324025 -0.03218011 -0.00862087 0.00096276 -0.00048780 -0.00060566
1741766573.188884 0.08322255 -0.03214798 -0.00862649 0.00095963 -0.00048648 -0.00059901
1741766573.322394 0.08322248 -0.03212339 -0.00862972 0.00096044 -0.00048397 -0.00059259
1741766573.455835 0.08321341 -0.03209491 -0.00863347 0.00095580 -0.00048528 -0.00058617
1741766573.589065 0.08320413 -0.03210146 -0.00863320 0.00095203 -0.00048546 -0.00058203
1741766573.722555 0.08322709 -0.03213606 -0.00862736 0.00095188 -0.00048528 -0.00057561
1741766573.855934 0.08323734 -0.03213217 -0.00862504 0.00094977 -0.00048560 -0.00056818
1741766573.989425 0.08323529 -0.03212225 -0.00862641 0.00094823 -0.00048235 -0.00056168
1741766574.122931 0.08324361 -0.03212050 -0.00862509 0.00094526 -0.00047899 -0.00055507
1741766574.256449 0.08320298 -0.03208251 -0.00863380 0.00094289 -0.00047616 -0.00054964
1741766574.389700 0.08323622 -0.03211776 -0.00862342 0.00093944 -0.00047689 -0.00054210
1741766574.523139 0.08323819 -0.03212565 -0.00862153 0.00093748 -0.00047664 -0.00053639
1741766574.656539 0.08325855 -0.03213469 -0.00861704 0.00093550 -0.00047393 -0.00053097
1741766574.790038 0.08323788 -0.03212751 -0.00862117 0.00093247 -0.00047229 -0.00052608
1741766574.923417 0.08322176 -0.03210617 -0.00862429 0.00093174 -0.00047051 -0.00051972
1741766575.056975 0.08322928 -0.03211470 -0.00862383 0.00093049 -0.00047058 -0.00051412
1741766575.190362 0.08323901 -0.03210378 -0.00862382 0.00092839 -0.00047192 -0.00050819
1741766575.323716 0.08318302 -0.03205948 -0.00863576 0.00092537 -0.00047036 -0.00050177
1741766575.457164 0.08321363 -0.03210436 -0.00862466 0.00092378 -0.00046697 -0.00049373
1741766575.590650 0.08319919 -0.03206138 -0.00863064 0.00092250 -0.00046485 -0.00048805
1741766575.724013 0.08318063 -0.03205940 -0.00863360 0.00091966 -0.00046269 -0.00048148
1741766575.857538 0.08319944 -0.03207726 -0.00862737 0.00091644 -0.00046120 -0.00047584
1741766575.991016 0.08319746 -0.03207158 -0.00862750 0.00091435 -0.00045947 -0.00046980
1741766576.124396 0.08322624 -0.03208623 -0.00862128 0.00091298 -0.00045724 -0.00046420
1741766576.257885 0.08321670 -0.03207693 -0.00862168 0.00090898 -0.00045718 -0.00045888
1741766576.391212 0.08320150 -0.03206937 -0.00862364 0.00090680 -0.00045461 -0.00045392
1741766576.524627 0.08320917 -0.03205507 -0.00862534 0.00090588 -0.00045342 -0.00044856
1741766576.658118 0.08319347 -0.03206249 -0.00862736 0.00090357 -0.00045356 -0.00044189
1741766576.791643 0.08322794 -0.03209234 -0.00861752 0.00090376 -0.00045132 -0.00043646
1741766576.925016 0.08322585 -0.03205629 -0.00862109 0.00090110 -0.00045090 -0.00043053
1741766577.058724 0.08317633 -0.03203673 -0.00862842 0.00089595 -0.00044704 -0.00042521
1741766577.191843 0.08318690 -0.03203907 -0.00862677 0.00089551 -0.00044430 -0.00042008
1741766577.325290 0.08318937 -0.03202384 -0.00863077 0.00089548 -0.00044386 -0.00041476
1741766577.458939 0.08322548 -0.03203143 -0.00862199 0.00089356 -0.00044114 -0.00040865
1741766577.592226 0.08313887 -0.03195033 -0.00864274 0.00088858 -0.00044075 -0.00040343
1741766577.726076 0.08316201 -0.03198635 -0.00863360 0.00088882 -0.00044000 -0.00039855
1741766577.859007 0.08316007 -0.03197637 -0.00863570 0.00088860 -0.00043994 -0.00039304
1741766577.992432 0.08318215 -0.03199431 -0.00862978 0.00088742 -0.00043860 -0.00038733
1741766578.125970 0.08315668 -0.03196628 -0.00863593 0.00088364 -0.00043731 -0.00038247
1741766578.259346 0.08313124 -0.03195310 -0.00864031 0.00088152 -0.00043317 -0.00037721
1741766578.392780 0.08314453 -0.03194718 -0.00863957 0.00088044 -0.00042977 -0.00037176
1741766578.526217 0.08313167 -0.03193999 -0.00864199 0.00087660 -0.00043070 -0.00036659
1741766578.659685 0.08314119 -0.03197414 -0.00863501 0.00087439 -0.00043035 -0.00036158
1741766578.793216 0.08314119 -0.03197414 -0.00863501 0.00067718 0.00011637 0.00197365
1741766578.926582 0.08314119 -0.03197414 -0.00863501 -0.00040006 -0.00054196 0.00173383
1741766579.059942 0.08314119 -0.03197414 -0.00863501 -0.00043964 0.00029714 0.00192574
1741766579.193416 0.08314119 -0.03197414 -0.00863501 0.00064956 0.00025477 0.00182552
1741766579.326785 0.08314119 -0.03197414 -0.00863501 0.00017867 0.00004401 0.00233987
1741766579.460387 0.08314119 -0.03197414 -0.00863501 -0.00024432 -0.00032893 0.00243170
1741766579.593715 0.08314119 -0.03197414 -0.00863501 0.00016233 0.00013991 0.00204013
1741766579.727082 0.08314119 -0.03197414 -0.00863501 0.00022823 0.00019386 0.00205340
1741766579.860466 0.08314119 -0.03197414 -0.00863501 -0.00060715 0.00029483 0.00187020
1741766579.993954 0.08314119 -0.03197414 -0.00863501 -0.00028911 -0.00033438 0.00185372
1741766580.127380 0.08314119 -0.03197414 -0.00863501 0.00112445 0.00042028 0.00218231
1741766580.260828 0.08314119 -0.03197414 -0.00863501 0.00058068 0.00095119 0.00207672
1741766580.394408 0.08314120 -0.03197414 -0.00863501 -0.00163607 -0.00098331 0.00189697
1741766580.527768 0.08314120 -0.03197414 -0.00863501 0.00025589 -0.00045311 0.00199293
1741766580.661131 0.08314119 -0.03197414 -0.00863501 -0.00010561 -0.00004464 0.00209583
1741766580.794564 0.08314119 -0.03197414 -0.00863501 0.00011304 -0.00012517 0.00183422
1741766580.927960 0.08314119 -0.03197414 -0.00863501 0.00086981 0.00030513 0.00198892
1741766581.061403 0.08314119 -0.03197414 -0.00863501 0.00003453 0.00025527 0.00176257
1741766581.194882 0.08314119 -0.03197414 -0.00863501 -0.00001581 0.00016728 0.00234597
1741766581.328384 0.08314119 -0.03197414 -0.00863501 0.00032483 0.00053206 0.00174049
1741766581.461724 0.08314119 -0.03197414 -0.00863501 -0.00064760 -0.00033264 0.00211234
1741766581.595156 0.08314119 -0.03197414 -0.00863501 -0.00126726 -0.00069338 0.00165545
1741766581.728751 0.08314119 -0.03197414 -0.00863501 0.00034870 0.00076876 0.00191745
1741766581.862072 0.08314119 -0.03197414 -0.00863501 -0.00042177 -0.00055480 0.00182955
1741766581.995497 0.08314119 -0.03197414 -0.00863501 0.00025307 0.00059579 0.00147062
1741766582.128988 0.08314119 -0.03197414 -0.00863501 -0.00019582 -0.00030744 0.00176346
1741766582.262376 0.08314120 -0.03197414 -0.00863501 0.00125244 0.00080558 0.00210115
1741766582.395904 0.08314120 -0.03197414 -0.00863501 -0.00024393 0.00020918 0.00171727
1741766582.529163 0.08314120 -0.03197414 -0.00863501 -0.00013153 0.00006603 0.00184052
1741766582.662610 0.08314120 -0.03197414 -0.00863501 0.00005787 0.00030939 0.00190299
1741766582.796094 0.08314120 -0.03197414 -0.00863501 -0.00148506 -0.00182335 0.00140100
1741766582.929549 0.08314120 -0.03197414 -0.00863501 -0.00047474 0.00029483 0.00143596
1741766583.062994 0.08314120 -0.03197414 -0.00863501 0.00110305 0.00061200 0.00169629
1741766583.196412 0.08314120 -0.03197414 -0.00863501 -0.00062363 -0.00020775 0.00187415
1741766583.329854 0.08314120 -0.03197414 -0.00863501 0.00053100 0.00003736 0.00176633
1741766583.463363 0.08314120 -0.03197414 -0.00863501 0.00098817 0.00030119 0.00222430
1741766583.596754 0.08314120 -0.03197414 -0.00863501 -0.00026235 -0.00057425 0.00194687
1741766583.730165 0.08314120 -0.03197414 -0.00863501 0.00000488 0.00004761 0.00131505
1741766583.863609 0.08314120 -0.03197414 -0.00863501 -0.00030382 0.00020406 0.00206874
1741766583.997054 0.08314120 -0.03197414 -0.00863501 0.00022239 -0.00009917 0.00166135
1741766584.130452 0.08314120 -0.03197414 -0.00863501 -0.00061760 -0.00001680 0.00191731
1741766584.263879 0.08314120 -0.03197414 -0.00863501 -0.00033061 -0.00035551 0.00141974
1741766584.397372 0.08314120 -0.03197414 -0.00863501 0.00005114 0.00067721 0.00179241
1741766584.530866 0.08314120 -0.03197414 -0.00863501 -0.00011185 -0.00033387 0.00152141
1741766584.664293 0.08314120 -0.03197414 -0.00863501 0.00138943 0.00060071 0.00222541
1741766584.797633 0.08314120 -0.03197414 -0.00863501 -0.00130102 -0.00066639 0.00152476
1741766584.931424 0.08314120 -0.03197414 -0.00863501 0.00149697 0.00031929 0.00163106
1741766585.064479 0.08314120 -0.03197414 -0.00863501 -0.00164489 -0.00095924 0.00154003
1741766585.197974 0.08314120 -0.03197414 -0.00863501 0.00113356 0.00074627 0.00160876
1741766585.331350 0.08314119 -0.03197414 -0.00863501 0.00021307 0.00013776 0.00141781
1741766585.464832 0.08314119 -0.03197414 -0.00863501 0.00024741 -0.00049426 0.00182207
1741766585.598356 0.08314120 -0.03197414 -0.00863501 -0.00095218 -0.00036173 0.00181794
1741766585.731628 0.08314120 -0.03197414 -0.00863501 0.00047235 0.00004805 0.00140584
1741766585.865157 0.08314120 -0.03197414 -0.00863501 0.00040747 -0.00031934 0.00132363
1741766585.998539 0.08314119 -0.03197414 -0.00863501 -0.00055093 0.00027121 0.00179688
1741766586.132128 0.08314119 -0.03197414 -0.00863501 0.00044105 0.00002057 0.00134328
1741766586.265427 0.08314119 -0.03197414 -0.00863501 -0.00045015 -0.00047306 0.00148489
1741766586.398830 0.08314120 -0.03197414 -0.00863501 0.00031759 -0.00011675 0.00148099
1741766586.532246 0.08314120 -0.03197414 -0.00863501 0.00087641 0.00053644 0.00141519
1741766586.665746 0.08314120 -0.03197414 -0.00863501 -0.00072592 -0.00047512 0.00170147
1741766586.799125 0.08314119 -0.03197414 -0.00863501 -0.00012560 0.00026953 0.00148418
1741766586.932911 0.08314120 -0.03197414 -0.00863501 0.00005158 0.00019236 0.00149966
1741766587.066130 0.08314120 -0.03197414 -0.00863501 0.00001078 -0.00029430 0.00134967
1741766587.199438 0.08314120 -0.03197414 -0.00863501 -0.00004791 -0.00064079 0.00144251
1741766587.332891 0.08314120 -0.03197414 -0.00863501 0.00104042 0.00048131 0.00160050
1741766587.466520 0.08314120 -0.03197414 -0.00863501 0.00020683 -0.00012480 0.00166414
1741766587.600030 0.08314120 -0.03197414 -0.00863501 -0.00084188 -0.00065752 0.00117972
1741766587.733187 0.08314121 -0.03197414 -0.00863501 0.00049765 -0.00003195 0.00133046
1741766587.866686 0.08314120 -0.03197414 -0.00863501 0.00250464 0.00123969 0.00142673
1741766588.000089 0.08314121 -0.03197414 -0.00863501 -0.00205369 -0.00166096 0.00136244
1741766588.133459 0.08314121 -0.03197414 -0.00863501 -0.00007791 -0.00039334 0.00129681
1741766588.266990 0.08314121 -0.03197414 -0.00863501 0.00074044 -0.00014971 0.00125408
1741766588.400476 0.08314120 -0.03197414 -0.00863501 -0.00014315 -0.00018927 0.00171366
1741766588.533829 0.08314121 -0.03197413 -0.00863501 0.00025097 -0.00059795 0.00136645
1741766588.667307 0.08314121 -0.03197413 -0.00863501 0.00083380 0.00006233 0.00153588
1741766588.800620 0.08314121 -0.03197413 -0.00863501 -0.00039955 -0.00046859 0.00123126
1741766588.934090 0.08314121 -0.03197413 -0.00863501 0.00091283 0.00053392 0.00166377
1741766589.067548 0.08314121 -0.03197414 -0.00863501 -0.00128346 -0.00140863 0.00134712
1741766589.200988 0.08314121 -0.03197414 -0.00863501 -0.00019542 -0.00007958 0.00102584
1741766589.334354 0.08314121 -0.03197414 -0.00863501 0.00019934 0.00028558 0.00154994
1741766589.467870 0.08314121 -0.03197414 -0.00863501 0.00114991 0.00015900 0.00155977
1741766589.601524 0.08314121 -0.03197414 -0.00863501 -0.00038410 -0.00035638 0.00134628
1741766589.701913 0.08314120 -0.03197414 -0.00863501 0.00012218 -0.00053379 0.00133359
1741766589.868166 0.08314121 -0.03197413 -0.00863502 0.00029445 -0.00029881 0.00130310
1741766589.968333 0.08314121 -0.03197413 -0.00863502 0.00154603 0.00010779 0.00113243
1741766590.101806 0.08314121 -0.03197413 -0.00863502 0.00009173 0.00008923 0.00127640
1741766590.235245 0.08314121 -0.03197413 -0.00863502 -0.00032363 -0.00075988 0.00178400
1741766590.368520 0.08314121 -0.03197413 -0.00863502 0.00025095 -0.00055627 0.00115872
1741766590.501891 0.08314121 -0.03197413 -0.00863502 0.00116346 0.00083952 0.00143272
1741766590.635374 0.08314121 -0.03197413 -0.00863501 -0.00054168 -0.00095621 0.00104598
1741766590.768721 0.08314121 -0.03197413 -0.00863501 0.00089114 0.00025366 0.00126318
1741766590.902183 0.08314121 -0.03197413 -0.00863501 -0.00022268 -0.00029980 0.00144300
1741766591.035625 0.08314121 -0.03197413 -0.00863501 0.00060174 0.00070951 0.00125089
1741766591.169026 0.08314122 -0.03197413 -0.00863501 0.00078485 -0.00013010 0.00122871
1741766591.302492 0.08314122 -0.03197413 -0.00863501 -0.00045646 -0.00048097 0.00133352
1741766591.436028 0.08314121 -0.03197413 -0.00863501 0.00039338 -0.00027053 0.00093043
1741766591.569422 0.08314121 -0.03197414 -0.00863501 0.00137466 0.00098088 0.00149353
1741766591.702892 0.08314121 -0.03197414 -0.00863501 -0.00146411 -0.00086564 0.00120641
1741766591.836315 0.08314121 -0.03197414 -0.00863501 0.00011257 0.00031591 0.00116726
1741766591.969697 0.08314121 -0.03197414 -0.00863501 0.00104263 0.00053036 0.00136576
1741766592.103230 0.08314121 -0.03197413 -0.00863501 -0.00030985 0.00010157 0.00094688
1741766592.236587 0.08314121 -0.03197414 -0.00863501 0.00010892 -0.00012549 0.00113955
1741766592.370018 0.08314121 -0.03197414 -0.00863501 -0.00081188 -0.00108592 0.00128000
1741766592.503380 0.08314121 -0.03197414 -0.00863501 0.00189969 0.00222481 0.00156643
1741766592.636841 0.08314121 -0.03197414 -0.00863501 0.00001395 -0.00040471 0.00080742
1741766592.770457 0.08314121 -0.03197414 -0.00863501 -0.00087737 -0.00048090 0.00105321
1741766592.903768 0.08314121 -0.03197414 -0.00863501 -0.00063982 -0.00031331 0.00107136
1741766593.037111 0.08314121 -0.03197414 -0.00863501 0.00011244 0.00064986 0.00110287
1741766593.170632 0.08314121 -0.03197414 -0.00863501 -0.00027448 -0.00013044 0.00128575
1741766593.304059 0.08314121 -0.03197414 -0.00863501 0.00053509 0.00039628 0.00095677
1741766593.437503 0.08314121 -0.03197414 -0.00863501 -0.00040006 -0.00044855 0.00125097
1741766593.570922 0.08314121 -0.03197414 -0.00863501 0.00060283 0.00060698 0.00106055
1741766593.704328 0.08314121 -0.03197414 -0.00863501 -0.00013311 0.00025225 0.00141939
1741766593.837763 0.08314121 -0.03197414 -0.00863501 -0.00027871 -0.00064060 0.00126107
1741766593.971225 0.08314121 -0.03197414 -0.00863501 -0.00015646 -0.00023591 0.00100326
1741766594.104618 0.08314121 -0.03197414 -0.00863501 0.00035292 0.00033146 0.00108362
1741766594.238697 0.08314121 -0.03197414 -0.00863501 -0.00004340 -0.00015146 0.00099740
1741766594.371473 0.08314121 -0.03197414 -0.00863501 -0.00029062 -0.00004067 0.00114923
1741766594.504956 0.08314121 -0.03197414 -0.00863501 0.00052125 0.00041461 0.00121164
1741766594.638412 0.08314121 -0.03197414 -0.00863501 0.00018348 0.00003424 0.00121309
1741766594.771770 0.08314121 -0.03197414 -0.00863501 0.00170103 0.00115949 0.00090779
1741766594.905314 0.08314121 -0.03197414 -0.00863501 -0.00151124 -0.00124210 0.00113123
1741766595.038944 0.08314121 -0.03197414 -0.00863501 0.00003977 0.00003499 0.00087434
1741766595.172192 0.08314121 -0.03197414 -0.00863501 0.00030660 0.00012406 0.00084336
1741766595.305515 0.08314121 -0.03197414 -0.00863501 0.00055783 0.00047727 0.00096507
1741766595.439014 0.08314121 -0.03197414 -0.00863501 -0.00156073 -0.00111240 0.00088414
1741766595.572430 0.08314121 -0.03197414 -0.00863501 0.00036439 -0.00043753 0.00099106
1741766595.705896 0.08314121 -0.03197414 -0.00863501 0.00111385 0.00022836 0.00188684
1741766595.839277 0.08314121 -0.03197414 -0.00863501 -0.00056876 -0.00045003 0.00112271
1741766595.972750 0.08314121 -0.03197414 -0.00863501 0.00160653 0.00067842 0.00106651
1741766596.106170 0.08314122 -0.03197414 -0.00863501 -0.00084212 -0.00018241 0.00056116
1741766596.239604 0.08314121 -0.03197414 -0.00863501 0.00080627 0.00037077 0.00110800
1741766596.373038 0.08314121 -0.03197414 -0.00863501 -0.00068466 0.00028510 0.00089380
1741766596.506526 0.08314121 -0.03197414 -0.00863501 -0.00092109 -0.00033508 0.00082435
1741766596.640018 0.08314121 -0.03197414 -0.00863501 0.00239939 0.00121563 0.00087801
1741766596.773364 0.08314121 -0.03197414 -0.00863501 -0.00114277 -0.00091833 0.00094605
1741766596.906862 0.08314121 -0.03197414 -0.00863501 -0.00046558 -0.00041125 0.00090926
1741766597.040247 0.08314121 -0.03197414 -0.00863501 0.00025460 0.00058689 0.00078091
1741766597.173642 0.08314121 -0.03197414 -0.00863501 -0.00020124 -0.00074089 0.00121174
1741766597.307085 0.08314121 -0.03197414 -0.00863501 -0.00015527 -0.00057325 0.00099901
1741766597.440601 0.08314121 -0.03197414 -0.00863501 0.00202468 0.00180061 0.00095969
1741766597.573985 0.08314121 -0.03197414 -0.00863501 -0.00168959 -0.00147581 0.00053946
1741766597.707393 0.08314121 -0.03197414 -0.00863501 0.00099938 0.00089649 0.00081198
1741766597.840862 0.08314121 -0.03197414 -0.00863501 -0.00053350 -0.00063791 0.00095813
1741766597.974292 0.08314121 -0.03197414 -0.00863501 -0.00023361 -0.00078030 0.00059959
1741766598.107700 0.08314121 -0.03197414 -0.00863501 0.00173329 0.00091787 0.00151203
1741766598.241205 0.08314121 -0.03197414 -0.00863501 -0.00137319 -0.00081647 0.00085667
1741766598.374887 0.08314122 -0.03197414 -0.00863501 -0.00027480 -0.00033848 0.00082736
1741766598.507986 0.08314122 -0.03197414 -0.00863501 -0.00028383 0.00005348 0.00080014
1741766598.641637 0.08314122 -0.03197413 -0.00863501 0.00071520 0.00067169 0.00099538
1741766598.774879 0.08314122 -0.03197414 -0.00863501 -0.00100299 -0.00047097 0.00133644
1741766598.908303 0.08314122 -0.03197414 -0.00863501 0.00124706 0.00109690 0.00078118
1741766599.041950 0.08314121 -0.03197414 -0.00863501 -0.00065157 -0.00033300 0.00080782
1741766599.175249 0.08314122 -0.03197414 -0.00863501 0.00034147 -0.00014860 0.00091738
1741766599.308683 0.08314122 -0.03197414 -0.00863501 0.00029642 -0.00028108 0.00092766
1741766599.442093 0.08314122 -0.03197413 -0.00863501 -0.00036554 -0.00022791 0.00081033
1741766599.575643 0.08314122 -0.03197413 -0.00863501 0.00062126 -0.00001515 0.00110905
1741766599.708985 0.08314122 -0.03197413 -0.00863501 -0.00050292 -0.00032979 0.00055837
1741766599.842369 0.08314122 -0.03197413 -0.00863501 -0.00003080 -0.00027066 0.00036604
1741766599.975865 0.08314122 -0.03197413 -0.00863501 0.00202173 0.00104248 0.00141127
1741766600.109285 0.08314121 -0.03197414 -0.00863501 -0.00132062 -0.00029832 0.00080149
1741766600.242690 0.08314121 -0.03197414 -0.00863501 0.00014686 -0.00004061 0.00094001
1741766600.376076 0.08314122 -0.03197414 -0.00863501 -0.00062653 -0.00020086 0.00049078
1741766600.509546 0.08314121 -0.03197414 -0.00863501 0.00078023 0.00055362 0.00047709
1741766600.643058 0.08314121 -0.03197414 -0.00863501 -0.00042300 -0.00036911 0.00093364
1741766600.776607 0.08314122 -0.03197414 -0.00863501 -0.00006372 -0.00005448 0.00082405
