timestamp ba_x ba_y ba_z bg_x bg_y bg_z
170.140000 -0.00095480 0.00049393 0.01808299 -0.00013550 0.00050214 0.00002477
170.205000 -0.00092718 0.00055477 0.01470544 -0.00006899 -0.00037667 0.00044345
170.274000 -0.00085153 0.00064667 0.00948960 -0.00014206 -0.00041417 0.00037558
170.338000 -0.00084157 0.00066510 0.00877441 -0.00006494 -0.00037288 0.00029319
170.406000 -0.00085507 0.00065894 0.00979180 0.00001607 -0.00038150 0.00020890
170.486000 -0.00085442 0.00067571 0.00897272 0.00009596 -0.00039394 0.00011859
170.538000 -0.00086651 0.00067962 0.00896224 0.00010700 -0.00034065 0.00008905
170.603000 -0.00088039 0.00068111 0.00887256 0.00004458 -0.00026584 0.00008141
170.669000 -0.00089505 0.00068375 0.00959976 -0.00004247 -0.00027824 0.00006760
170.735000 -0.00092244 0.00068065 0.01010077 -0.00007567 -0.00032507 0.00005046
170.806000 -0.00094773 0.00066988 0.01043738 -0.00008856 -0.00030879 -0.00000546
170.873000 -0.00102955 0.00066862 0.01024506 -0.00009189 -0.00024578 0.00002976
170.942000 -0.00105653 0.00066994 0.00994993 -0.00006637 -0.00017745 0.00002298
171.004000 -0.00107021 0.00068878 0.01021155 -0.00010243 -0.00024998 -0.00003470
171.079000 -0.00112855 0.00067998 0.00971427 -0.00008200 -0.00025201 -0.00007904
171.140000 -0.00139867 0.00064205 0.01000121 -0.00005284 -0.00017143 -0.00006591
171.205000 -0.00161578 0.00058513 0.00984187 0.00003466 -0.00013372 0.00000448
171.274000 -0.00182499 0.00053759 0.01004700 0.00005383 -0.00013370 0.00004598
171.357000 -0.00203820 0.00047280 0.00939078 0.00001850 -0.00010048 0.00004985
171.425000 -0.00230535 0.00043305 0.00977123 0.00002261 -0.00009454 0.00004934
171.482000 -0.00270593 0.00036557 0.00939863 0.00003376 -0.00010452 0.00007577
171.541000 -0.00300541 0.00028871 0.00931954 0.00003707 -0.00005248 0.00005276
171.613000 -0.00342278 0.00020497 0.00944690 0.00004706 -0.00004413 0.00002733
171.672000 -0.00398285 0.00015525 0.00917816 0.00006135 -0.00005471 0.00008953
171.739000 -0.00440130 0.00005524 0.00907597 0.00006558 -0.00004852 0.00009904
171.803000 -0.00500576 -0.00003639 0.00909641 0.00003549 -0.00006125 0.00008308
171.870000 -0.00568565 -0.00014746 0.00928146 0.00001377 -0.00012128 0.00008301
171.937000 -0.00661114 -0.00020205 0.00898148 0.00002891 -0.00016542 0.00009919
172.003000 -0.00716955 -0.00028594 0.00874897 0.00002680 -0.00015844 0.00011559
172.070000 -0.00766520 -0.00030448 0.00863246 0.00001570 -0.00014611 0.00010572
172.137000 -0.00826927 -0.00034980 0.00850675 0.00002782 -0.00014919 0.00008390
172.203000 -0.00967109 -0.00050175 0.00836446 0.00003199 -0.00013544 0.00012943
172.272000 -0.01058940 -0.00065469 0.00821922 0.00001734 -0.00010760 0.00016844
172.336000 -0.01143928 -0.00087643 0.00831812 -0.00000193 -0.00008743 0.00017066
172.404000 -0.01232926 -0.00106373 0.00836603 -0.00002613 -0.00010198 0.00014842
172.471000 -0.01339049 -0.00125451 0.00823697 -0.00004449 -0.00010096 0.00012314
172.537000 -0.01422952 -0.00144409 0.00845013 -0.00004860 -0.00013095 0.00011482
172.603000 -0.01536144 -0.00141540 0.00789598 -0.00007296 -0.00014949 0.00008377
172.672000 -0.01609659 -0.00156252 0.00776138 -0.00007420 -0.00013477 0.00003373
172.737000 -0.01745478 -0.00183912 0.00796957 -0.00003368 -0.00014935 0.00002243
172.804000 -0.01859299 -0.00198997 0.00774044 0.00001112 -0.00015649 0.00006339
172.870000 -0.02051049 -0.00193100 0.00733642 -0.00000965 -0.00012640 0.00005761
172.935000 -0.02170746 -0.00196075 0.00753224 -0.00000183 -0.00013395 0.00009830
173.004000 -0.02317573 -0.00193531 0.00708885 -0.00002278 -0.00009223 0.00012013
173.073000 -0.02409769 -0.00187525 0.00723524 -0.00006419 -0.00003565 0.00010794
173.135000 -0.02512086 -0.00215324 0.00740620 -0.00010329 -0.00003368 0.00007972
173.201000 -0.02593536 -0.00222316 0.00720030 -0.00010765 -0.00004741 0.00006596
173.270000 -0.02751690 -0.00261549 0.00712700 -0.00012300 -0.00004005 0.00007770
173.336000 -0.02765485 -0.00266015 0.00724392 -0.00010990 -0.00005213 0.00008359
173.405000 -0.02832359 -0.00273025 0.00711470 -0.00012014 -0.00006088 0.00003950
173.470000 -0.03005252 -0.00268886 0.00678898 -0.00013841 -0.00003379 0.00004091
173.536000 -0.03223124 -0.00269979 0.00673937 -0.00014510 0.00000298 0.00007176
173.603000 -0.03294800 -0.00275103 0.00696993 -0.00011926 0.00000398 0.00009678
173.676000 -0.03434664 -0.00267837 0.00657243 -0.00014942 0.00001124 0.00008023
173.739000 -0.03553471 -0.00303384 0.00687940 -0.00014728 0.00000534 0.00011146
173.811000 -0.03630289 -0.00303368 0.00659833 -0.00014709 -0.00000019 0.00010937
173.872000 -0.03721359 -0.00327103 0.00680961 -0.00015992 -0.00001556 0.00009810
173.938000 -0.03901992 -0.00308778 0.00655551 -0.00014244 -0.00002084 0.00010078
174.004000 -0.04053935 -0.00296201 0.00644864 -0.00011667 -0.00000502 0.00010879
174.070000 -0.04319743 -0.00304365 0.00648396 -0.00012770 -0.00000636 0.00012770
174.138000 -0.04439290 -0.00316483 0.00650251 -0.00013308 -0.00002210 0.00016465
174.203000 -0.04566132 -0.00280180 0.00633479 -0.00012589 -0.00002655 0.00014857
174.273000 -0.04818888 -0.00241124 0.00613126 -0.00011036 -0.00002178 0.00013645
174.336000 -0.04991143 -0.00229990 0.00611408 -0.00008850 -0.00001889 0.00014600
174.402000 -0.05228709 -0.00164307 0.00577928 -0.00008275 -0.00000988 0.00014162
174.471000 -0.05271124 -0.00154415 0.00577284 -0.00006218 -0.00001794 0.00013417
174.538000 -0.05372112 -0.00147691 0.00575604 -0.00004643 0.00001304 0.00011375
174.604000 -0.05555187 -0.00095190 0.00575165 -0.00002251 -0.00000544 0.00015761
174.674000 -0.05821235 -0.00092929 0.00569781 -0.00004016 0.00000026 0.00017672
174.737000 -0.05872266 -0.00087474 0.00592812 -0.00004452 -0.00001035 0.00018302
174.803000 -0.06078353 -0.00020964 0.00553734 -0.00007029 -0.00004225 0.00017750
174.872000 -0.06267180 -0.00007686 0.00554648 -0.00007204 -0.00006639 0.00017270
174.936000 -0.06480622 0.00055591 0.00540705 -0.00004987 -0.00007871 0.00016904
175.004000 -0.06644776 0.00141107 0.00512886 -0.00004594 -0.00007339 0.00016090
175.071000 -0.06932535 0.00249430 0.00496567 -0.00005824 -0.00006175 0.00015631
175.136000 -0.07192359 0.00347273 0.00487875 -0.00004948 -0.00004440 0.00015875
175.202000 -0.07468384 0.00440412 0.00479041 -0.00003697 -0.00003104 0.00016825
175.270000 -0.07794552 0.00501475 0.00483041 -0.00002393 -0.00003561 0.00017647
175.336000 -0.08006482 0.00614943 0.00472231 -0.00001344 -0.00005020 0.00016592
175.402000 -0.08310866 0.00774338 0.00450689 -0.00001688 -0.00005404 0.00016737
175.471000 -0.08826423 0.01038487 0.00398326 -0.00001804 -0.00002367 0.00018578
175.542000 -0.09052356 0.01210252 0.00428025 -0.00001429 0.00000285 0.00017344
175.606000 -0.09362331 0.01347191 0.00428298 -0.00001810 0.00000163 0.00016383
175.670000 -0.09811610 0.01444522 0.00412071 -0.00001457 0.00000942 0.00017636
175.740000 -0.10354111 0.01497331 0.00396353 -0.00000338 0.00001450 0.00019566
175.803000 -0.10750781 0.01612978 0.00392388 -0.00000321 0.00002140 0.00020037
175.871000 -0.11079749 0.01756045 0.00359772 -0.00001863 0.00003618 0.00019725
175.935000 -0.11444206 0.01840991 0.00369139 -0.00001891 0.00005428 0.00020346
176.006000 -0.11895958 0.01968569 0.00355884 -0.00000753 0.00005598 0.00019790
176.070000 -0.12298044 0.02063523 0.00372060 0.00000513 0.00004691 0.00018952
176.138000 -0.12777411 0.02190792 0.00342437 0.00000439 0.00003625 0.00019147
176.204000 -0.13128158 0.02305016 0.00327750 0.00000225 0.00005141 0.00019062
176.269000 -0.13696625 0.02456968 0.00322089 -0.00000179 0.00007041 0.00019584
176.336000 -0.14106820 0.02541812 0.00347373 -0.00000555 0.00006956 0.00020570
176.404000 -0.14724370 0.02774444 0.00295163 -0.00000617 0.00006711 0.00021547
176.469000 -0.15146088 0.02982896 0.00310015 0.00001570 0.00008560 0.00020808
176.535000 -0.15531053 0.03169242 0.00306520 0.00002838 0.00008952 0.00019044
176.603000 -0.16016440 0.03321918 0.00311088 0.00003422 0.00008266 0.00017779
176.670000 -0.16536914 0.03502818 0.00306589 0.00003734 0.00007846 0.00016919
176.735000 -0.17014876 0.03573102 0.00314151 0.00002481 0.00007308 0.00016540
176.811000 -0.17666460 0.03741359 0.00278434 0.00000892 0.00006912 0.00017713
176.869000 -0.18058771 0.03796569 0.00312615 0.00000854 0.00008141 0.00018462
176.935000 -0.18461506 0.03904704 0.00292478 0.00001517 0.00009086 0.00017567
177.004000 -0.18790617 0.03968923 0.00296567 0.00001338 0.00009108 0.00016361
177.069000 -0.19165349 0.04106953 0.00289413 0.00000770 0.00009127 0.00015306
177.145000 -0.19829702 0.04136729 0.00281793 0.00000494 0.00008225 0.00016315
177.205000 -0.20081294 0.04165950 0.00313502 0.00000838 0.00007601 0.00017048
177.269000 -0.20327672 0.04200608 0.00304630 -0.00000316 0.00006348 0.00017684
177.338000 -0.20758610 0.04291892 0.00284031 -0.00001600 0.00005971 0.00019256
177.405000 -0.21141905 0.04194956 0.00311879 -0.00001976 0.00005076 0.00020888
177.472000 -0.21360284 0.04343433 0.00293359 -0.00002099 0.00004050 0.00021052
177.537000 -0.21704149 0.04363977 0.00317555 -0.00002534 0.00002708 0.00020759
